svm_type c_svc
kernel_type linear
nr_class 2
total_sv 13
rho 1.675
label 1 -1
nr_sv 3 10
SV
2.219388455184988e-08 1:-96.06976 2:-21.82402 3:9.6074181 4:158.0837 5:-10.794907 6:-22.949478 7:51.337391 8:169.58668 9:-51.580709 10:-22.762344 11:28.967495 12:169.96291 13:-80.294332 14:-22.120651 15:15.37793 16:162.4465 17:-100.56545 18:-21.292053 19:7.3741837 20:156.87798 21:-53.257886 22:36.354645 23:-80.426559 24:152.31372 25:-26.680034 26:6.7358093 27:-18.275864 28:168.73568 29:-40.687593 30:28.183258 31:-49.044653 32:160.07028 33:-48.728276 34:35.658371 35:-68.712265 36:155.18662 37:-54.25324 38:37.718185 39:-83.502213 40:151.63952 41:-15.303231 42:53.920486 43:-91.665569 44:151.26875 45:-6.5110326 46:10.406647 47:-20.519484 48:167.47366 49:-10.282382 50:39.034943 51:-54.925965 52:159.0502 53:-13.287489 54:51.188904 55:-78.281673 56:154.06309 57:-15.676172 58:55.926315 59:-94.970848 60:150.65161 61:10.114102 62:52.19577 63:-85.338024 64:151.67118 65:14.518243 66:10.367569 67:-17.570297 68:165.35149 69:13.447911 70:37.404404 71:-49.216541 72:158.81638 73:11.650046 74:49.406143 75:-72.00165 76:154.31121 77:9.7728796 78:54.09613 79:-88.664265 80:151.07138 81:58.094424 82:35.370895 83:-63.628208 84:150.51402 85:33.621325 86:5.8317413 87:-14.012896 88:162.16293 89:47.173171 90:25.302078 91:-36.882753 92:156.4067 93:54.043872 94:32.977417 95:-51.919313 96:153.03775 97:59.318042 98:36.878723 99:-66.581522 100:149.91197 101:-96.0368 102:-21.959702 103:9.5104218 104:158.1758 105:-10.816646 106:-22.89595 107:51.356716 108:169.4647 109:-51.566093 110:-22.809219 111:28.920055 112:169.99118 113:-80.272953 114:-22.226044 115:15.31356 116:162.52894 117:-100.53189 118:-21.443451 119:7.2744446 120:156.97154 121:-53.1605 122:36.354599 123:-80.467346 124:152.46205 125:-26.669816 126:6.665329 127:-18.316566 128:168.86689 129:-40.640364 130:28.136703 131:-49.085495 132:160.21011 133:-48.653145 134:35.633972 135:-68.75606 136:155.33028 137:-54.155178 138:37.712784 139:-83.551895 140:151.78568 141:-15.279063 142:53.949448 143:-91.654743 144:151.3984 145:-6.5043964 146:10.366989 147:-20.541637 148:167.57018 149:-10.292599 150:38.989929 151:-54.95073 152:159.16341 153:-13.293672 154:51.170715 155:-78.29298 156:154.18408 157:-15.672219 158:55.946869 159:-94.972557 160:150.77867 161:10.135571 162:52.27005 163:-85.289051 164:151.78899 165:14.521433 166:10.367462 167:-17.567717 168:165.40589 169:13.444324 170:37.430511 171:-49.191317 172:158.91178 173:11.653475 174:49.455597 175:-71.964666 176:154.42089 177:9.7874565 178:54.16391 179:-88.62336 180:151.18849 181:58.123859 182:35.573517 183:-63.48274 184:150.60059 185:33.627922 186:5.8687897 187:-13.981558 188:162.18712 189:47.175091 190:25.414795 191:-36.789556 192:156.4666 193:54.059269 194:33.149094 195:-51.789696 196:153.11436 197:59.359715 198:37.114532 199:-66.4252 200:150.00205 201:-96.028844 202:-22.016541 203:9.4465179 204:158.21816 205:-10.845273 206:-22.854614 207:51.369091 208:169.38694 209:-51.5733 210:-22.818695 211:28.893429 212:169.98831 213:-80.270581 214:-22.267273 215:15.265434 216:162.56413 217:-100.52292 218:-21.506546 219:7.2075958 220:157.01559 221:-53.087354 222:36.342606 223:-80.511959 224:152.55337 225:-26.658534 226:6.6291199 227:-18.346113 228:168.95365 229:-40.601657 230:28.101318 231:-49.126909 232:160.29779 233:-48.595342 234:35.608292 235:-68.801538 236:155.41922 237:-54.082997 238:37.699585 239:-83.600956 240:151.8759 241:-15.215145 242:54.009262 243:-91.634945 244:151.49134 245:-6.4937892 246:10.342834 247:-20.557167 248:167.64158 249:-10.266366 250:38.968658 251:-54.965574 252:159.2428 253:-13.247167 254:51.192917 255:-78.287697 256:154.27102 257:-15.60742 258:56.027359 259:-94.953064 260:150.87255 261:10.174682 262:52.244415 263:-85.301067 264:151.8602 265:14.529437 266:10.360931 267:-17.564957 268:165.45453 269:13.459453 270:37.406113 271:-49.204084 272:158.97581 273:11.679767 274:49.42276 275:-71.982761 276:154.48862 277:9.8250513 278:54.127731 279:-88.643661 280:151.25805 281:58.155002 282:35.635529 283:-63.415663 284:150.66042 285:33.635955 286:5.8791199 287:-13.957888 288:162.21815 289:47.185561 290:25.446167 291:-36.746383 292:156.5143 293:54.078357 294:33.198761 295:-51.733118 296:153.16936 297:59.392901 298:37.185425 299:-66.357737 300:150.06285 301:-96.009759 302:-22.06723 303:9.3666382 304:158.29064 305:-10.876376 306:-22.799667 307:51.386925 308:169.27274 309:-51.557164 310:-22.829483 311:28.825859 312:170.00074 313:-80.258996 314:-22.301071 315:15.206535 316:162.62597 317:-100.51208 318:-21.557007 319:7.1489983 320:157.09044 321:-52.996808 322:36.342377 323:-80.559994 324:152.68627 325:-26.645755 326:6.5769043 327:-18.383432 328:169.07804 329:-40.557275 330:28.048203 331:-49.179144 332:160.4234 333:-48.527997 334:35.573807 335:-68.855982 336:155.54701 337:-53.998693 338:37.690628 339:-83.658047 340:152.00598 341:-15.138391 342:54.089157 343:-91.603287 344:151.62127 345:-6.4826059 346:10.309296 347:-20.577541 348:167.7396 349:-10.235045 350:38.947296 351:-54.978013 352:159.35499 353:-13.191371 354:51.217026 355:-78.279358 356:154.39185 357:-15.529606 358:56.107758 359:-94.931404 360:151.00048 361:10.207211 362:52.289703 363:-85.276226 364:151.97078 365:14.537345 366:10.353699 367:-17.562677 368:165.51677 369:13.459167 370:37.386536 371:-49.212086 372:159.0664 373:11.688397 374:49.427261 375:-71.978731 376:154.59046 377:9.8474646 378:54.172241 379:-88.629814 380:151.36752 381:58.177176 382:35.783905 383:-63.305126 384:150.7479 385:33.644721 386:5.8969727 387:-13.929195 388:162.25366 389:47.180041 390:25.50589 391:-36.690175 392:156.578 393:54.0782 394:33.307587 395:-51.648933 396:153.24725 397:59.411849 398:37.360382 399:-66.248396 400:150.15314 401:-96.003423 402:-22.015411 403:9.3462067 404:158.31956 405:-10.889681 406:-22.773056 407:51.395908 408:169.22649 409:-51.53571 410:-22.797806 411:28.772274 412:170.00671 413:-80.254079 414:-22.241837 415:15.188953 416:162.64958 417:-100.51877 418:-21.477341 419:7.1625786 420:157.12261 421:-52.956044 422:36.370682 423:-80.569263 424:152.74416 425:-26.640547 426:6.5587921 427:-18.397449 428:169.13009 429:-40.536551 430:28.037491 431:-49.195007 432:160.47644 433:-48.497701 434:35.581039 435:-68.868843 436:155.60215 437:-53.962739 438:37.719604 439:-83.669872 440:152.06311 441:-15.108055 442:54.087952 443:-91.609409 444:151.67163 445:-6.4776092 446:10.295578 447:-20.585976 448:167.78438 449:-10.220801 450:38.927032 451:-54.992913 452:159.40173 453:-13.1684 454:51.199142 455:-78.294109 456:154.43931 457:-15.499312 458:56.095856 459:-94.945423 460:151.04869 461:10.219316 462:52.302246 463:-85.271439 464:152.01918 465:14.541169 466:10.347672 467:-17.563072 468:165.54892 469:13.457093 470:37.365479 471:-49.225088 472:159.10685 473:11.688792 474:49.415833 475:-71.986843 476:154.63466 477:9.8528948 478:54.182037 479:-88.632416 480:151.41484 481:58.184489 482:35.875351 483:-63.241138 484:150.79632 485:33.648406 486:5.898407 487:-13.919685 488:162.27579 489:47.174613 490:25.540817 491:-36.657195 492:156.61449 493:54.074161 494:33.377518 495:-51.597004 496:153.29151 497:59.416286 498:37.475128 499:-66.180853 500:150.20434 501:-96.011797 502:-21.905273 503:9.3639336 504:158.36258 505:-10.909498 506:-22.729309 507:51.411064 508:169.15148 509:-51.502237 510:-22.746582 511:28.691948 512:170.01042 513:-80.26565 514:-22.135651 515:15.20665 516:162.68001 517:-100.56828 518:-21.324478 519:7.2813988 520:157.16864 521:-52.874952 522:36.479736 523:-80.56221 524:152.84683 525:-26.632771 526:6.5301666 527:-18.418877 528:169.21571 529:-40.492926 530:28.04187 531:-49.209558 532:160.56637 533:-48.4335 534:35.639023 535:-68.871078 536:155.69842 537:-53.887728 538:37.838287 539:-83.667198 540:152.16507 541:-15.048383 542:54.161697 543:-91.583187 544:151.76564 545:-6.4701672 546:10.273468 547:-20.599365 548:167.85982 549:-10.196144 550:38.898483 551:-55.013513 552:159.48033 553:-13.123787 554:51.211761 555:-78.295498 556:154.52407 557:-15.437423 558:56.168106 559:-94.931572 560:151.13998 561:10.247608 562:52.357635 563:-85.247009 564:152.10449 565:14.54685 566:10.337311 567:-17.564468 568:165.60504 569:13.458523 570:37.334747 571:-49.243708 572:159.17558 573:11.700323 574:49.417236 575:-71.989199 576:154.71111 577:9.8780079 578:54.239349 579:-88.620159 580:151.49821 581:58.197462 582:36.027252 583:-63.136822 584:150.87859 585:33.653879 586:5.8995819 587:-13.905949 588:162.31593 589:47.167231 590:25.591003 591:-36.608681 592:156.67632 593:54.07028 594:33.483582 595:-51.517425 596:153.36553 597:59.427786 598:37.65535 599:-66.074583 600:150.28947 601:-96.008572 602:-21.895386 603:9.3587341 604:158.38164 605:-10.913948 606:-22.718018 607:51.415112 608:169.12607 609:-51.486485 610:-22.74736 611:28.659946 612:170.01818 613:-80.264202 614:-22.12764 615:15.205608 616:162.69547 617:-100.57262 618:-21.312347 619:7.2956085 620:157.1879 621:-52.849545 622:36.552536 623:-80.542908 624:152.88675 625:-26.630799 626:6.5190125 627:-18.425676 628:169.24384 629:-40.481655 630:28.052094 631:-49.205593 632:160.59852 633:-48.417183 634:35.682312 635:-68.856346 636:155.73486 637:-53.870121 638:37.918808 639:-83.647362 640:152.20514 641:-15.019284 642:54.262131 643:-91.538391 644:151.80589 645:-6.4686546 646:10.266418 647:-20.603352 648:167.88169 649:-10.18779 650:38.892273 651:-55.017542 652:159.50492 653:-13.10234 654:51.259094 655:-78.272781 656:154.55668 657:-15.403669 658:56.289413 659:-94.888348 660:151.18084 661:10.254366 662:52.468597 663:-85.188995 664:152.14431 665:14.547771 666:10.335968 667:-17.564491 668:165.61869 669:13.451313 670:37.349594 671:-49.229657 672:159.20018 673:11.697575 674:49.48616 675:-71.946686 676:154.74511 677:9.8831806 678:54.376755 679:-88.558502 680:151.54023 681:58.20322 682:36.087708 683:-63.097689 684:150.90216 685:33.65514 686:5.9036865 687:-13.901157 688:162.3236 689:47.166115 690:25.610809 691:-36.591668 692:156.69153 693:54.07198 694:33.522369 695:-51.489052 696:153.38508 697:59.436642 698:37.71991 699:-66.03616 700:150.313 701:-95.99604 702:-21.911682 703:9.341938 704:158.42099 705:-10.915827 706:-22.696304 707:51.424301 708:169.0729 709:-51.466846 710:-22.755173 711:28.630882 712:170.03039 713:-80.255356 714:-22.140182 715:15.199429 716:162.72924 717:-100.56341 718:-21.333084 719:7.2876396 720:157.2278 721:-52.821537 722:36.649521 723:-80.517464 724:152.96054 725:-26.629319 726:6.496109 727:-18.435898 728:169.30122 729:-40.473654 730:28.040604 731:-49.21076 732:160.65897 733:-48.404675 734:35.719513 735:-68.844358 736:155.80137 737:-53.858284 738:38.019836 739:-83.625332 740:152.27759 741:-14.970778 742:54.511963 743:-91.414886 744:151.89501 745:-6.4684744 746:10.252335 747:-20.610415 748:167.9242 749:-10.176777 750:38.914871 751:-54.995232 752:159.56088 753:-13.068889 754:51.404892 755:-78.187347 756:154.63167 757:-15.34906 758:56.588715 759:-94.758591 760:151.27353 761:10.268736 762:52.751556 763:-85.040451 764:152.23164 765:14.54714 766:10.333878 767:-17.566236 768:165.64285 769:13.437557 770:37.400711 771:-49.185477 772:159.2512 773:11.697161 774:49.67334 775:-71.830315 776:154.81942 777:9.9027157 778:54.729813 779:-88.394566 780:151.63404 781:58.209778 782:36.191711 783:-63.037731 784:150.94303 785:33.655762 786:5.9129791 787:-13.895699 788:162.33481 789:47.161518 790:25.638382 791:-36.573431 792:156.71603 793:54.072624 794:33.582123 795:-51.451246 796:153.4175 797:59.451645 798:37.828476 799:-65.978868 800:150.35306 801:-95.994026 802:-21.897308 803:9.34655 804:158.44236 805:-10.918683 806:-22.683075 807:51.429527 808:169.04478 809:-51.449928 810:-22.754364 811:28.60099 812:170.0395 813:-80.248924 814:-22.133286 815:15.192329 816:162.74764 817:-100.57139 818:-21.315552 819:7.3187332 820:157.24923 821:-52.804092 822:36.697006 823:-80.5089 824:152.99811 825:-26.627985 826:6.4856262 827:-18.441521 828:169.33155 829:-40.466845 830:28.03006 831:-49.218888 832:160.68956 833:-48.394291 834:35.733948 835:-68.844139 836:155.83492 837:-53.847748 838:38.069748 839:-83.619606 840:152.31432 841:-14.956667 842:54.62323 843:-91.361408 844:151.93914 845:-6.4675479 846:10.244995 847:-20.614355 848:167.94692 849:-10.180108 850:38.91507 851:-54.992433 852:159.5889 853:-13.067167 854:51.460922 855:-78.155018 856:154.66847 857:-15.340955 858:56.718628 859:-94.703842 860:151.31891 861:10.276672 862:52.848907 863:-84.989925 864:152.27034 865:14.547626 866:10.331421 867:-17.567287 868:165.65609 869:13.433867 870:37.412399 871:-49.174256 872:159.2756 873:11.698503 874:49.728958 875:-71.795622 876:154.85212 877:9.911377 878:54.840485 879:-88.343758 880:151.67357 881:58.22171 882:36.251038 883:-63.000288 884:150.96572 885:33.65657 886:5.9152069 887:-13.892786 888:162.34127 889:47.16333 890:25.646027 891:-36.565214 892:156.72862 893:54.080727 894:33.611496 895:-51.428475 896:153.43486 897:59.472679 898:37.894958 899:-65.940405 900:150.37547 901:-95.980301 902:-21.94696 903:9.3116875 904:158.49271 905:-10.927326 906:-22.666794 907:51.434879 908:168.99231 909:-51.431084 910:-22.790909 911:28.557827 912:170.06783 913:-80.232391 914:-22.19368 915:15.153049 916:162.79455 917:-100.5611 918:-21.388336 919:7.2943115 920:157.29751 921:-52.758335 922:36.84462 923:-80.472782 924:153.07453 925:-26.623975 926:6.463028 927:-18.455235 928:169.38371 929:-40.446308 930:28.035034 931:-49.220718 932:160.74873 933:-48.363586 934:35.811279 935:-68.821522 936:155.90326 937:-53.815166 938:38.237488 939:-83.583107 940:152.39119 941:-14.920254 942:54.853607 943:-91.249882 944:152.01682 945:-6.4647131 946:10.232529 947:-20.621437 948:167.97665 949:-10.179793 950:38.92511 951:-54.980452 952:159.63345 953:-13.05235 954:51.583359 955:-78.083614 956:154.73158 957:-15.309861 958:56.98642 959:-94.587791 960:151.39948 961:10.286133 962:53.022125 963:-84.892792 964:152.33166 965:14.54916 966:10.331787 967:-17.565798 968:165.66337 969:13.426991 970:37.457062 971:-49.134474 972:159.31179 973:11.695961 974:49.841461 975:-71.719095 976:154.90414 977:9.9167023 978:55.026306 979:-88.245262 980:151.73655 981:58.240868 982:36.306198 983:-62.959904 984:150.98296 985:33.659016 986:5.9276581 987:-13.881554 988:162.33421 989:47.169914 990:25.65596 991:-36.553698 992:156.73239 993:54.09584 994:33.633163 995:-51.406693 996:153.44433 997:59.502419 998:37.940018 999:-65.906252 1000:150.39029 1001:-95.979606 1002:-21.964722 1003:9.3061523 1004:158.51668 1005:-10.933033 1006:-22.656891 1007:51.438026 1008:168.96447 1009:-51.425136 1010:-22.808304 1011:28.54052 1012:170.07864 1013:-80.231078 1014:-22.221924 1015:15.145226 1016:162.81541 1017:-100.56799 1018:-21.419586 1019:7.3074341 1020:157.31964 1021:-52.734939 1022:36.892731 1023:-80.468311 1024:153.11048 1025:-26.621536 1026:6.4523621 1027:-18.462486 1028:169.41197 1029:-40.434957 1030:28.02301 1031:-49.232913 1032:160.77748 1033:-48.346122 1034:35.82547 1035:-68.825771 1036:155.9351 1037:-53.795596 1038:38.28952 1039:-83.581863 1040:152.42645 1041:-14.901049 1042:54.9263 1043:-91.215702 1044:152.05166 1045:-6.4626913 1046:10.226028 1047:-20.625294 1048:167.99401 1049:-10.175035 1050:38.926392 1051:-54.978106 1052:159.65719 1053:-13.040854 1054:51.617401 1055:-78.064125 1056:154.76109 1057:-15.291708 1058:57.062134 1059:-94.555515 1060:151.43415 1061:10.298087 1062:53.113983 1063:-84.843281 1064:152.36494 1065:14.550506 1066:10.330933 1067:-17.565189 1068:165.66953 1069:13.427075 1070:37.473373 1071:-49.119061 1072:159.33118 1073:11.702085 1074:49.897659 1075:-71.682226 1076:154.93199 1077:9.9304113 1078:55.13028 1079:-88.194138 1080:151.77089 1081:58.251863 1082:36.320007 1083:-62.944832 1084:150.99251 1085:33.6606 1086:5.9321442 1087:-13.875797 1088:162.33296 1089:47.175443 1090:25.658585 1091:-36.547209 1092:156.73657 1093:54.10563 1094:33.636749 1095:-51.397699 1096:153.45077 1097:59.51793 1098:37.946503 1099:-65.894264 1100:150.39857 1101:-95.976331 1102:-22.002625 1103:9.2937164 1104:158.56115 1105:-10.941359 1106:-22.649414 1107:51.439552 1108:168.9325 1109:-51.411378 1110:-22.851974 1111:28.503433 1112:170.11158 1113:-80.221753 1114:-22.288956 1115:15.116661 1116:162.85698 1117:-100.57822 1118:-21.489227 1119:7.329525 1120:157.35931 1121:-52.69344 1122:37.049927 1123:-80.427414 1124:153.16625 1125:-26.617934 1126:6.4385681 1127:-18.472492 1128:169.44202 1129:-40.415338 1130:28.034882 1131:-49.23211 1132:160.81516 1133:-48.317075 1134:35.909134 1135:-68.80003 1136:155.98236 1137:-53.765462 1138:38.463974 1139:-83.541077 1140:152.48259 1141:-14.875749 1142:55.063049 1143:-91.147095 1144:152.09592 1145:-6.4597664 1146:10.219086 1147:-20.629652 1148:168.00383 1149:-10.171259 1150:38.94252 1151:-54.963277 1152:159.68164 1153:-13.029573 1154:51.687454 1155:-78.020493 1156:154.79596 1157:-15.272448 1158:57.196014 1159:-94.49176 1160:151.47759 1161:10.307738 1162:53.289642 1163:-84.750542 1164:152.40655 1165:14.552403 1166:10.332306 1167:-17.562807 1168:165.66199 1169:13.416665 1170:37.496704 1171:-49.097336 1172:159.34547 1173:11.697577 1174:49.995392 1175:-71.619825 1176:154.96209 1177:9.9370584 1178:55.322662 1179:-88.102638 1180:151.81371 1181:58.273105 1182:36.348358 1183:-62.916384 1184:150.99271 1185:33.662906 1186:5.9412842 1187:-13.866285 1188:162.31551 1189:47.187266 1190:25.662231 1191:-36.536815 1192:156.7269 1193:54.126101 1194:33.641296 1195:-51.382773 1196:153.44468 1197:59.54935 1198:37.956085 1199:-65.873749 1200:150.39553 1201:-95.974248 1202:-22.019257 1203:9.2890778 1204:158.58101 1205:-10.942859 1206:-22.648819 1207:51.439495 1208:168.92289 1209:-51.406262 1210:-22.869614 1211:28.491871 1212:170.12825 1213:-80.218419 1214:-22.315384 1215:15.10857 1216:162.87604 1217:-100.58061 1218:-21.518021 1219:7.3361702 1220:157.37728 1221:-52.678464 1222:37.108566 1223:-80.411072 1224:153.1852 1225:-26.617124 1226:6.4334564 1227:-18.475439 1228:169.45048 1229:-40.408355 1230:28.039642 1231:-49.230892 1232:160.8271 1233:-48.306268 1234:35.938293 1235:-68.79052 1236:155.99774 1237:-53.753633 1238:38.523499 1239:-83.526649 1240:152.50108 1241:-14.873344 1242:55.173355 1243:-91.089497 1244:152.11879 1245:-6.4593463 1246:10.217102 1247:-20.630762 1248:168.00341 1249:-10.179668 1250:38.957657 1251:-54.949097 1252:159.68977 1253:-13.037938 1254:51.751678 1255:-77.979126 1256:154.81281 1257:-15.278615 1258:57.320358 1259:-94.430462 1260:151.50212 1261:10.313407 1262:53.425064 1263:-84.677956 1264:152.42913 1265:14.552501 1266:10.333832 1267:-17.561827 1268:165.6548 1269:13.410447 1270:37.523331 1271:-49.074492 1272:159.35051 1273:11.696618 1274:50.082993 1275:-71.563438 1276:154.97818 1277:9.9443979 1278:55.484238 1279:-88.023041 1280:151.83909 1281:58.280345 1282:36.358231 1283:-62.907871 1284:150.98859 1285:33.663337 1286:5.9460449 1287:-13.863199 1288:162.30477 1289:47.191623 1290:25.659821 1291:-36.537612 1292:156.71825 1293:54.133693 1294:33.635925 1295:-51.383657 1296:153.43696 1297:59.560885 1298:37.949554 1299:-65.873497 1300:150.38868 1301:-95.940693 1302:-22.205765 1303:9.2378654 1304:158.62573 1305:-10.938505 1306:-22.660706 1307:51.435184 1308:168.91013 1309:-51.358761 1310:-23.048737 1311:28.41386 1312:170.18459 1313:-80.172085 1314:-22.590836 1315:15.029419 1316:162.91937 1317:-100.55308 1318:-21.844742 1319:7.3013687 1320:157.40481 1321:-52.666504 1322:37.231598 1323:-80.365963 1324:153.21549 1325:-26.617649 1326:6.4191895 1327:-18.479649 1328:169.45516 1329:-40.408133 1330:28.047424 1331:-49.219932 1332:160.84191 1333:-48.304047 1334:35.999207 1335:-68.758829 1336:156.02059 1337:-53.752876 1338:38.650269 1339:-83.482712 1340:152.5309 1341:-14.878735 1342:55.447449 1343:-90.941093 1344:152.15815 1345:-6.4617786 1346:10.215286 1347:-20.630903 1348:167.98313 1349:-10.203802 1350:39.00795 1351:-54.903164 1352:159.69352 1353:-13.06188 1354:51.921707 1355:-77.866295 1356:154.83835 1357:-15.29682 1358:57.632294 1359:-94.269688 1360:151.5463 1361:10.328278 1362:53.727188 1363:-84.52433 1364:152.45814 1365:14.549433 1366:10.344452 1367:-17.558117 1368:165.61813 1369:13.395395 1370:37.564865 1371:-49.043648 1372:159.33662 1373:11.701115 1374:50.261871 1375:-71.45682 1376:154.98919 1377:9.9764519 1378:55.843445 1379:-87.859074 1380:151.87252 1381:58.300808 1382:36.402161 1383:-62.879883 1384:150.95991 1385:33.662254 1386:5.9678955 1387:-13.856443 1388:162.26094 1389:47.205502 1390:25.663406 1391:-36.537789 1392:156.67746 1393:54.159527 1394:33.632553 1395:-51.381979 1396:153.39791 1397:59.60091 1398:37.944458 1399:-65.86701 1400:150.3514 1401:-95.921023 1402:-22.352524 1403:9.2201424 1404:158.64273 1405:-10.932244 1406:-22.666321 1407:51.434036 1408:168.9047 1409:-51.328879 1410:-23.181442 1411:28.373787 1412:170.21051 1413:-80.141589 1414:-22.800735 1415:14.985607 1416:162.93542 1417:-100.54017 1418:-22.092682 1419:7.3004837 1420:157.40911 1421:-52.674624 1422:37.330307 1423:-80.320473 1424:153.23494 1425:-26.619346 1426:6.4114532 1427:-18.479889 1428:169.45596 1429:-40.418645 1430:28.061523 1431:-49.200843 1432:160.85039 1433:-48.319907 1434:36.05864 1435:-68.719069 1436:156.03586 1437:-53.775702 1438:38.764587 1439:-83.430382 1440:152.552 1441:-14.894334 1442:55.563324 1443:-90.876518 1444:152.17358 1445:-6.4646482 1446:10.214081 1447:-20.630604 1448:167.97152 1449:-10.223169 1450:39.027237 1451:-54.883842 1452:159.69311 1453:-13.085629 1454:51.990036 1455:-77.818768 1456:154.84738 1457:-15.321058 1458:57.759216 1459:-94.20158 1460:151.56329 1461:10.318126 1462:53.786484 1463:-84.496361 1464:152.45841 1465:14.546462 1466:10.349838 1467:-17.557413 1468:165.59863 1469:13.383426 1470:37.570862 1471:-49.042071 1472:159.32547 1473:11.689179 1474:50.288132 1475:-71.443762 1476:154.9838 1477:9.9677439 1478:55.898376 1479:-87.836578 1480:151.8717 1481:58.312276 1482:36.422211 1483:-62.87014 1484:150.94348 1485:33.660607 1486:5.9792175 1487:-13.855558 1488:162.23806 1489:47.213197 1490:25.658539 1491:-36.545393 1492:156.65436 1493:54.174848 1494:33.623398 1495:-51.388306 1496:153.37534 1497:59.625852 1498:37.937164 1499:-65.869162 1500:150.32979 1501:-95.868166 1502:-22.721985 1503:9.1650352 1504:158.64986 1505:-10.919011 1506:-22.665253 1507:51.437321 1508:168.89068 1509:-51.277868 1510:-23.481766 1511:28.319683 1512:170.22901 1513:-80.062181 1514:-23.307266 1515:14.866318 1516:162.94102 1517:-100.49315 1518:-22.699036 1519:7.2590675 1520:157.38787 1521:-52.69882 1522:37.54599 1523:-80.217381 1524:153.28179 1525:-26.623505 1526:6.400589 1527:-18.477663 1528:169.46636 1529:-40.443399 1530:28.099655 1531:-49.154755 1532:160.87481 1533:-48.359156 1534:36.192352 1535:-68.627661 1536:156.07422 1537:-53.832983 1538:39.012726 1539:-83.310757 1540:152.60267 1541:-14.916294 1542:55.784119 1543:-90.759529 1544:152.21369 1545:-6.4703407 1546:10.20993 1547:-20.630873 1548:167.96635 1549:-10.255511 1550:39.039963 1551:-54.866968 1552:159.70086 1553:-13.121062 1554:52.105209 1555:-77.743298 1556:154.87313 1557:-15.353132 1558:58.008972 1559:-94.078564 1560:151.60632 1561:10.305126 1562:53.877853 1563:-84.455788 1564:152.47085 1565:14.541048 1566:10.35318 1567:-17.559923 1568:165.58224 1569:13.367542 1570:37.572098 1571:-49.046013 1572:159.32001 1573:11.675575 1574:50.323044 1575:-71.428726 1576:154.98686 1577:9.9605389 1578:55.982391 1579:-87.805321 1580:151.882 1581:58.376387 1582:36.382706 1583:-62.875595 1584:150.91884 1585:33.657084 1586:5.9894714 1587:-13.859688 1588:162.21619 1589:47.262373 1590:25.585983 1591:-36.589612 1592:156.61887 1593:54.255857 1594:33.505219 1595:-51.441965 1596:153.33385 1597:59.737638 1598:37.7836 1599:-65.921705 1600:150.28432 1601:-95.79073 1602:-23.227737 1603:9.0711479 1604:158.64284 1605:-10.897493 1606:-22.661484 1607:51.443542 1608:168.87535 1609:-51.229863 1610:-23.837723 1611:28.295204 1612:170.23309 1613:-79.988378 1614:-23.910751 1615:14.785847 1616:162.93181 1617:-100.40496 1618:-23.468521 1619:7.1286545 1620:157.35016 1621:-52.76537 1622:37.771881 1623:-80.093204 1624:153.33261 1625:-26.630624 1626:6.3885651 1627:-18.471567 1628:169.47901 1629:-40.497983 1630:28.120621 1631:-49.103861 1632:160.8997 1633:-48.444066 1634:36.319641 1635:-68.51985 1636:156.11483 1637:-53.949162 1638:39.277145 1639:-83.164223 1640:152.65806 1641:-14.938168 1642:56.017944 1643:-90.637215 1644:152.25789 1645:-6.4793625 1646:10.204636 1647:-20.630665 1648:167.96495 1649:-10.287181 1650:39.042053 1651:-54.858019 1652:159.70929 1653:-13.150544 1654:52.221298 1655:-77.669147 1656:154.901 1657:-15.374462 1658:58.28006 1659:-93.948677 1660:151.65393 1661:10.282632 1662:53.932739 1663:-84.435818 1664:152.48132 1665:14.532786 1666:10.355667 1667:-17.565292 1668:165.57032 1669:13.3504 1670:37.570068 1671:-49.054975 1672:159.31722 1673:11.658442 1674:50.337723 1675:-71.428152 1676:154.98983 1677:9.9465456 1678:56.023193 1679:-87.796024 1680:151.88957 1681:58.422877 1682:36.38356 1683:-62.871649 1684:150.90492 1685:33.651324 1686:5.9991913 1687:-13.869469 1688:162.19884 1689:47.294688 1690:25.548035 1691:-36.617604 1692:156.59498 1693:54.314357 1694:33.451965 1695:-51.465767 1696:153.30853 1697:59.825145 1698:37.730026 1699:-65.934584 1700:150.25922 1701:-95.768346 1702:-23.359879 1703:9.0567627 1704:158.64673 1705:-10.886691 1706:-22.654922 1707:51.448719 1708:168.86573 1709:-51.209447 1710:-23.922211 1711:28.288441 1712:170.23879 1713:-79.966344 1714:-24.053482 1715:14.776081 1716:162.93613 1717:-100.38018 1718:-23.651642 1719:7.1093483 1720:157.34826 1721:-52.810689 1722:37.876755 1723:-80.031746 1724:153.35956 1725:-26.6343 1726:6.3826904 1727:-18.46829 1728:169.48832 1729:-40.533832 1730:28.11821 1731:-49.083542 1732:160.91301 1733:-48.499944 1734:36.368896 1735:-68.469414 1736:156.13584 1737:-54.024697 1738:39.398682 1739:-83.091595 1740:152.68688 1741:-14.960659 1742:56.048218 1743:-90.620975 1744:152.27104 1745:-6.4838209 1746:10.200745 1747:-20.631182 1748:167.96834 1749:-10.306074 1750:39.029938 1751:-54.863857 1752:159.71503 1753:-13.175538 1754:52.222321 1755:-77.666622 1756:154.9098 1757:-15.402352 1758:58.303131 1759:-93.937531 1760:151.66589 1761:10.264821 1762:53.933014 1763:-84.43935 1764:152.48754 1765:14.528798 1766:10.35466 1767:-17.569183 1768:165.56863 1769:13.339059 1770:37.565552 1771:-49.061612 1772:159.32013 1773:11.642789 1774:50.33165 1775:-71.435354 1776:154.99435 1777:9.9282141 1778:56.016571 1779:-87.803139 1780:151.89494 1781:58.459247 1782:36.347656 1783:-62.882877 1784:150.89671 1785:33.648425 1786:6.0009308 1787:-13.875746 1788:162.19432 1789:47.321742 1790:25.506866 1791:-36.642729 1792:156.58314 1793:54.358966 1794:33.385376 1795:-51.49608 1796:153.29328 1797:59.885951 1798:37.641693 1799:-65.965137 1800:150.24149 1801:-95.729825 1802:-23.654312 1803:9.0364838 1804:158.63859 1805:-10.869949 1806:-22.644302 1807:51.45694 1808:168.8504 1809:-51.169232 1810:-24.115936 1811:28.267914 1812:170.2398 1813:-79.923902 1814:-24.376221 1815:14.752674 1816:162.92941 1817:-100.34338 1818:-24.054977 1819:7.0971832 1820:157.32684 1821:-52.890718 1822:38.01387 1823:-79.946274 1824:153.39542 1825:-26.639955 1826:6.3726959 1827:-18.463589 1828:169.50194 1829:-40.596448 1830:28.092636 1831:-49.06397 1832:160.92842 1833:-48.596654 1834:36.409637 1835:-68.407421 1836:156.16107 1837:-54.153249 1838:39.541153 1839:-82.996063 1840:152.72296 1841:-14.997662 1842:56.084213 1843:-90.600605 1844:152.28885 1845:-6.4907608 1846:10.194275 1847:-20.632195 1848:167.97431 1849:-10.335817 1850:39.012589 1851:-54.871487 1852:159.72377 1853:-13.215803 1854:52.220367 1855:-77.664013 1856:154.92209 1857:-15.44814 1858:58.32753 1859:-93.924286 1860:151.68195 1861:10.234597 1862:53.920029 1863:-84.45211 1864:152.4946 1865:14.52255 1866:10.35321 1867:-17.575199 1868:165.56762 1869:13.320069 1870:37.555862 1871:-49.074261 1872:159.32445 1873:11.615968 1874:50.315445 1875:-71.451128 1876:154.99993 1877:9.8963556 1878:55.995163 1879:-87.82019 1880:151.90096 1881:58.546603 1882:36.209671 1883:-62.926918 1884:150.8702 1885:33.643931 1886:6.0042725 1887:-13.885193 1888:162.18904 1889:47.388663 1890:25.40007 1891:-36.703211 1892:156.55575 1893:54.4621 1894:33.191025 1895:-51.585519 1896:153.25279 1897:60.014926 1898:37.350281 1899:-66.072895 1900:150.18952 1901:-95.714753 1902:-23.793137 1903:9.0436897 1904:158.62472 1905:-10.861813 1906:-22.632446 1907:51.463867 1908:168.84443 1909:-51.143098 1910:-24.209793 1911:28.250534 1912:170.23335 1913:-79.900018 1914:-24.531937 1915:14.741405 1916:162.91679 1917:-100.33341 1918:-24.241272 1919:7.121933 1920:157.30691 1921:-52.928559 1922:38.053543 1923:-79.916359 1924:153.40829 1925:-26.642861 1926:6.3682404 1927:-18.460932 1928:169.50851 1929:-40.625033 1930:28.074554 1931:-49.059269 1932:160.93396 1933:-48.640782 1934:36.410919 1935:-68.387943 1936:156.1696 1937:-54.211358 1938:39.576126 1939:-82.963978 1940:152.73519 1941:-15.014824 1942:56.07338 1943:-90.605137 1944:152.29575 1945:-6.4940305 1946:10.189468 1947:-20.633547 1948:167.98133 1949:-10.347149 1950:39.002411 1951:-54.876445 1952:159.73045 1953:-13.232724 1954:52.204819 1955:-77.671375 1956:154.92827 1957:-15.46913 1958:58.30687 1959:-93.933014 1960:151.68768 1961:10.223544 1962:53.903595 1963:-84.466267 1964:152.49989 1965:14.519752 1966:10.349258 1967:-17.579847 1968:165.57383 1969:13.313245 1970:37.534973 1971:-49.093367 1972:159.32836 1973:11.60603 1974:50.280182 1975:-71.478184 1976:155.00191 1977:9.8840876 1978:55.948013 1979:-87.851124 1980:151.90162 1981:58.590507 1982:36.120132 1983:-62.958809 1984:150.86079 1985:33.641734 1986:6.001297 1987:-13.8918 1988:162.19419 1989:47.422072 1990:25.339386 1991:-36.737319 1992:156.54845 1993:54.512572 1994:33.082336 1995:-51.636546 1996:153.238 1997:60.076186 1998:37.186752 1999:-66.135422 2000:150.1681 2001:-95.671413 2002:-24.288208 2003:9.0551834 2004:158.58264 2005:-10.838455 2006:-22.607468 2007:51.479771 2008:168.8295 2009:-51.093048 2010:-24.528458 2011:28.246037 2012:170.21038 2013:-79.85741 2014:-25.064178 2015:14.759571 2016:162.87531 2017:-100.29753 2018:-24.913498 2019:7.1540565 2020:157.24232 2021:-53.004936 2022:38.058655 2023:-79.882359 2024:153.42446 2025:-26.650797 2026:6.3516083 2027:-18.455208 2028:169.51989 2029:-40.681234 2030:28.024246 2031:-49.05531 2032:160.9426 2033:-48.724892 2034:36.365753 2035:-68.370167 2036:156.17982 2037:-54.317493 2038:39.552948 2039:-82.932968 2040:152.74801 2041:-15.097421 2042:55.987518 2043:-90.647163 2044:152.29747 2045:-6.5036745 2046:10.176712 2047:-20.636797 2048:167.98951 2049:-10.40554 2050:38.93219 2051:-54.922462 2052:159.7318 2053:-13.325899 2054:52.058456 2055:-77.756897 2056:154.91926 2057:-15.587298 2058:58.081451 2059:-94.044533 2060:151.66953 2061:10.164034 2062:53.790878 2063:-84.543915 2064:152.49375 2065:14.511114 2066:10.34343 2067:-17.590401 2068:165.57761 2069:13.273504 2070:37.435165 2071:-49.183553 2072:159.31974 2073:11.541681 2074:50.083084 2075:-71.621605 2076:154.98031 2077:9.8012829 2078:55.660645 2079:-88.02356 2080:151.87001 2081:58.652966 2082:36.002518 2083:-63.007391 2084:150.84204 2085:33.635456 2086:6.0022736 2087:-13.906578 2088:162.19447 2089:47.466377 2090:25.26001 2091:-36.789361 2092:156.53216 2093:54.583614 2094:32.941498 2095:-51.707644 2096:153.21236 2097:60.167614 2098:36.979401 2099:-66.217356 2100:150.13443 2101:-95.624043 2102:-24.585861 2103:9.0316238 2104:158.55216 2105:-10.821508 2106:-22.598236 2107:51.487385 2108:168.83062 2109:-51.038189 2110:-24.722717 2111:28.205753 2112:170.20366 2113:-79.793659 2114:-25.385651 2115:14.705994 2116:162.85115 2117:-100.24288 2118:-25.30809 2119:7.1238976 2120:157.20085 2121:-53.067593 2122:38.076828 2123:-79.843807 2124:153.42648 2125:-26.656752 2126:6.3462067 2127:-18.448462 2128:169.51704 2129:-40.726776 2130:28.013916 2131:-49.03388 2132:160.94081 2133:-48.794678 2134:36.357651 2135:-68.337662 2136:156.17915 2137:-54.405609 2138:39.549988 2139:-82.892284 2140:152.7483 2141:-15.155969 2142:55.914185 2143:-90.682003 2144:152.28655 2145:-6.5105443 2146:10.172272 2147:-20.63682 2148:167.98875 2149:-10.444106 2150:38.883682 2151:-54.95578 2152:159.72295 2153:-13.389487 2154:51.940857 2155:-77.826584 2156:154.90014 2157:-15.669718 2158:57.888519 2159:-94.139248 2160:151.64129 2161:10.12006 2162:53.713181 2163:-84.597496 2164:152.48143 2165:14.505144 2166:10.341019 2167:-17.596745 2168:165.57829 2169:13.24408 2170:37.366425 2171:-49.245728 2172:159.30769 2173:11.494671 2174:49.952011 2175:-71.717436 2176:154.9587 2177:9.741478 2178:55.475128 2179:-88.136444 2180:151.84166 2181:58.67622 2182:35.858322 2183:-63.081533 2184:150.81824 2185:33.630882 2186:6.0018768 2187:-13.917807 2188:162.19564 2189:47.48674 2190:25.17598 2191:-36.855669 2192:156.51504 2193:54.610668 2194:32.782349 2195:-51.809208 2196:153.18356 2197:60.191555 2198:36.731094 2199:-66.344629 2200:150.09496 2201:-95.506254 2202:-25.142105 2203:8.9546242 2204:158.48873 2205:-10.776393 2206:-22.587982 2207:51.50135 2208:168.844 2209:-50.918467 2210:-25.063889 2211:28.12587 2212:170.19236 2213:-79.646704 2214:-25.951355 2215:14.581085 2216:162.80499 2217:-100.09691 2218:-26.010284 2219:7.0014801 2220:157.12223 2221:-53.217474 2222:38.061707 2223:-79.774853 2224:153.4128 2225:-26.672845 2226:6.3414917 2227:-18.426815 2228:169.50241 2229:-40.83429 2230:27.968613 2231:-48.998765 2232:160.92214 2233:-48.956896 2234:36.277466 2235:-68.294645 2236:156.15711 2237:-54.606443 2238:39.437744 2239:-82.841324 2240:152.72356 2241:-15.468791 2242:55.110931 2243:-91.116352 2244:152.15442 2245:-6.5286617 2246:10.167801 2247:-20.633305 2248:167.98357 2249:-10.658226 2250:38.370926 2251:-55.348412 2252:159.62062 2253:-13.740897 2254:50.927048 2255:-78.480202 2256:154.72027 2257:-16.116718 2258:56.420441 2259:-94.937885 2260:151.40461 2261:10.014883 2262:53.616821 2263:-84.662502 2264:152.46253 2265:14.48963 2266:10.337891 2267:-17.611357 2268:165.58079 2269:13.181189 2270:37.299744 2271:-49.312584 2272:159.29348 2273:11.392057 2274:49.800873 2275:-71.828259 2276:154.93082 2277:9.6075001 2278:55.236603 2279:-88.273037 2280:151.80311 2281:58.683008 2282:35.408432 2283:-63.333857 2284:150.74906 2285:33.618677 2286:6.0001678 2287:-13.947989 2288:162.20224 2289:47.506941 2290:24.933167 2291:-37.065829 2292:156.47028 2293:54.622721 2294:32.317627 2295:-52.134041 2296:153.10491 2297:60.166178 2298:36.000885 2299:-66.753241 2300:149.98526 2301:-95.465142 2302:-25.274414 2303:9.0247154 2304:158.44491 2305:-10.720501 2306:-22.565063 2307:51.523056 2308:168.85185 2309:-50.855409 2310:-25.132462 2311:28.145149 2312:170.16531 2313:-79.586061 2314:-26.075592 2315:14.609238 2316:162.76738 2317:-100.05088 2318:-26.159531 2319:7.0694313 2320:157.07721 2321:-53.368058 2322:37.963974 2323:-79.74017 2324:153.39576 2325:-26.693344 2326:6.342514 2327:-18.396746 2328:169.50028 2329:-40.938556 2330:27.87793 2331:-48.994506 2332:160.90396 2333:-49.110379 2334:36.112061 2335:-68.301641 2336:156.12925 2337:-54.793355 2338:39.206375 2339:-82.849476 2340:152.68876 2341:-15.584382 2342:54.979568 2343:-91.17215 2344:152.14118 2345:-6.5507073 2346:10.161896 2347:-20.629223 2348:167.99648 2349:-10.721238 2350:38.315857 2351:-55.379319 2352:159.61849 2353:-13.83806 2354:50.795639 2355:-78.547821 2356:154.70577 2357:-16.240578 2358:56.206131 2359:-95.029072 2360:151.3799 2361:9.8818884 2362:53.470337 2363:-84.75201 2364:152.45608 2365:14.471299 2366:10.326782 2367:-17.632931 2368:165.60348 2369:13.104924 2370:37.222931 2371:-49.387479 2372:159.2981 2373:11.264279 2374:49.627777 2375:-71.952198 2376:154.91956 2377:9.4376383 2378:54.960403 2379:-88.426083 2380:151.77929 2381:58.628592 2382:35.098389 2383:-63.545465 2384:150.72654 2385:33.603484 2386:5.9846649 2387:-13.991199 2388:162.22915 2389:47.485572 2390:24.775284 2391:-37.2286 2392:156.46694 2393:54.578193 2394:32.025024 2395:-52.372955 2396:153.08116 2397:60.079803 2398:35.544876 2399:-67.048115 2400:149.94276 2401:-95.386436 2402:-25.780518 2403:9.1765022 2404:158.23245 2405:-10.639322 2406:-22.453064 2407:51.588772 2408:168.86401 2409:-50.734695 2410:-25.422485 2411:28.190639 2412:169.99594 2413:-79.478065 2414:-26.603836 2415:14.700508 2416:162.56039 2417:-99.97464 2418:-26.820374 2419:7.2501373 2420:156.84651 2421:-53.566807 2422:37.742386 2423:-79.732281 2424:153.35231 2425:-26.724187 2426:6.3372345 2427:-18.353743 2428:169.5015 2429:-41.066362 2430:27.723755 2431:-49.010586 2432:160.86742 2433:-49.298946 2434:35.821899 2435:-68.349392 2436:156.0737 2437:-55.023533 2438:38.787704 2439:-82.907677 2440:152.61937 2441:-15.754685 2442:54.643372 2443:-91.329727 2444:152.12854 2445:-6.581903 2446:10.129379 2447:-20.635288 2448:168.0656 2449:-10.806961 2450:38.185471 2451:-55.457889 2452:159.64111 2453:-13.979814 2454:50.501968 2455:-78.706017 2456:154.69853 2457:-16.42994 2458:55.731079 2459:-95.238731 2460:151.34903 2461:9.560482 2462:52.641281 2463:-85.215702 2464:152.40539 2465:14.446436 2466:10.276169 2467:-17.682823 2468:165.71315 2469:12.922253 2470:36.782578 2471:-49.756302 2472:159.3077 2473:10.936949 2474:48.735672 2475:-72.551418 2476:154.85268 2477:8.992321 2478:53.628082 2479:-89.147953 2480:151.65661 2481:58.569679 2482:34.286575 2483:-64.010738 2484:150.71295 2485:33.581192 2486:5.9193726 2487:-14.072271 2488:162.35366 2489:47.487427 2490:24.376419 2491:-37.561217 2492:156.51144 2493:54.548317 2494:31.306076 2495:-52.869363 2496:153.07387 2497:59.970757 2498:34.434845 2499:-67.662104 2500:149.88841 2501:-95.128984 2502:-26.85939 2503:9.1784935 2504:157.8008 2505:-10.709411 2506:-21.634979 2507:51.922752 2508:168.29758 2509:-50.521292 2510:-25.819595 2511:28.228195 2512:169.34688 2513:-79.120653 2514:-27.764023 2515:14.522141 2516:162.10085 2517:-99.651964 2518:-28.357361 2519:7.1887779 2520:156.38058 2521:-53.425909 2522:36.562668 2523:-80.352306 2524:153.72113 2525:-26.703608 2526:6.1288757 2527:-18.454182 2528:170.07943 2529:-40.95627 2530:27.065689 2531:-49.461191 2532:161.31408 2533:-49.146635 2534:34.789948 2535:-68.970127 2536:156.45857 2537:-54.839098 2538:37.414185 2539:-83.606377 2540:152.9617 2541:-15.645829 2542:53.049423 2543:-92.228165 2544:152.5589 2545:-6.5507193 2546:9.8313141 2547:-20.788799 2548:168.75663 2549:-10.699044 2550:37.414612 2551:-55.99621 2552:160.20231 2553:-13.869769 2554:49.199554 2555:-79.518551 2556:155.16854 2557:-16.338724 2558:53.904312 2559:-96.205276 2560:151.75118 2561:8.9413204 2562:49.561264 2563:-86.749435 2564:152.71255 2565:14.477406 2566:9.9662476 2567:-17.834238 2568:166.36256 2569:12.594736 2570:35.34256 2571:-50.790555 2572:159.81513 2573:10.260456 2574:45.984772 2575:-74.19418 2576:155.18087 2577:8.0273037 2578:49.600677 2579:-91.079102 2580:151.84554 2581:58.429464 2582:31.687042 2583:-65.180565 2584:151.04193 2585:33.599642 2586:5.6132812 2587:-14.153419 2588:162.91362 2589:47.507681 2590:23.142639 2591:-38.341528 2592:156.96551 2593:54.446783 2594:29.154587 2595:-54.087033 2596:153.42479 2597:59.618551 2598:31.151794 2599:-69.162886 2600:150.13891 2601:-94.243667 2602:-28.18866 2603:8.0752182 2604:157.42574 2605:-10.810321 2606:-20.835831 2607:52.227783 2608:167.66235 2609:-50.028785 2610:-26.255936 2611:27.805176 2612:168.73037 2613:-78.142859 2614:-29.098251 2615:13.276566 2616:161.73911 2617:-98.465583 2618:-30.21907 2619:5.4410553 2620:155.9945 2621:-53.182944 2622:35.670471 2623:-80.876129 2624:154.18133 2625:-26.675254 2626:5.999588 2627:-18.537487 2628:170.72341 2629:-40.764462 2630:26.623108 2631:-49.827861 2632:161.8463 2633:-48.884124 2634:34.073013 2635:-69.47258 2636:156.94105 2637:-54.534984 2638:36.438141 2639:-84.168991 2640:153.41031 2641:-15.404664 2642:51.635345 2643:-93.016937 2644:153.09503 2645:-6.5042582 2646:9.5661316 2647:-20.926651 2648:169.56027 2649:-10.498081 2650:36.722717 2651:-56.481926 2652:160.86513 2653:-13.625897 2654:48.053009 2655:-80.232296 2656:155.7441 2657:-16.092287 2658:52.319626 2659:-97.036766 2660:152.26564 2661:8.2788305 2662:45.924057 2663:-88.267063 2664:153.08373 2665:14.524764 2666:9.6367645 2667:-17.976244 2668:167.12459 2669:12.303832 2670:33.736237 2671:-51.856976 2672:160.41479 2673:9.6020155 2674:42.852142 2675:-75.857716 2676:155.57756 2677:7.0597849 2678:44.98645 2679:-92.94994 2680:152.09173 2681:57.969872 2682:28.986938 2683:-66.309793 2684:151.53616 2685:33.625314 2686:5.2400665 2687:-14.235308 2688:163.576 2689:47.380216 2690:21.944809 2691:-39.085478 2692:157.57444 2693:54.066171 2694:27.031876 2695:-55.260628 2696:153.94865 2697:58.828141 2698:27.842346 2699:-70.58003 2700:150.57946 2701:-90.654716 2702:-32.177628 2703:3.4085617 2704:156.81103 2705:-11.182297 2706:-19.106064 2707:52.807678 2708:166.1278 2709:-48.667315 2710:-27.014893 2711:26.421074 2712:167.38292 2713:-75.347106 2714:-31.750824 2715:9.8283081 2716:161.09184 2717:-94.823867 2718:-34.148346 2719:0.31134415 2720:155.36986 2721:-52.158347 2722:33.878052 2723:-82.089058 2724:155.26655 2725:-26.559011 2726:5.7894135 2727:-18.76977 2728:172.10514 2729:-39.990876 2730:25.973572 2731:-50.630521 2732:163.08544 2733:-47.797931 2734:32.780746 2735:-70.631952 2736:158.08123 2737:-53.237948 2738:34.409851 2739:-85.506855 2740:154.47038 2741:-14.598265 2742:47.849136 2743:-94.887505 2744:154.29423 2745:-6.3380849 2746:9.0155029 2747:-21.220041 2748:171.46042 2749:-9.8260252 2750:35.111359 2751:-57.61302 2752:162.40501 2753:-12.818386 2754:44.998856 2755:-82.016338 2756:157.02886 2757:-15.275918 2758:47.758987 2759:-99.134151 2760:153.3634 2761:7.1624861 2762:37.67981 2763:-90.948944 2764:154.07619 2765:14.684539 2766:8.8973541 2767:-18.22588 2768:168.92323 2769:12.062997 2770:30.492157 2771:-53.72817 2772:161.92932 2773:8.7597227 2774:36.450211 2775:-78.628475 2776:156.70469 2777:5.6889658 2778:35.523438 2779:-95.742035 2780:152.95707 2781:55.176538 2782:21.141937 2783:-69.059593 2784:152.83862 2785:33.718122 2786:4.3636017 2787:-14.311226 2788:165.11702 2789:46.482873 2790:18.915924 2791:-40.977078 2792:159.10147 2793:52.008595 2794:21.389282 2795:-58.169067 2796:155.31518 2797:55.146821 2798:18.873825 2799:-73.720314 2800:151.82236 2801:-88.257912 2802:-34.020081 2803:0.4477272 2804:156.53199 2805:-11.671412 2806:-17.623337 2807:53.215904 2808:164.56561 2809:-47.973728 2810:-26.88768 2811:25.64341 2812:166.13747 2813:-73.648857 2814:-32.68158 2815:7.8451233 2816:160.62882 2817:-92.43679 2818:-35.847733 2819:-2.7687263 2820:155.1241 2821:-50.969383 2822:31.998383 2823:-83.363773 2824:156.37773 2825:-26.39167 2826:5.5053864 2827:-19.088556 2828:173.35084 2829:-39.164722 2830:25.188675 2831:-51.528351 2832:164.31596 2833:-46.626659 2834:31.351639 2835:-71.867533 2836:159.23555 2837:-51.817421 2838:32.274216 2839:-86.891361 2840:155.55925 2841:-13.717267 2842:44.036026 2843:-96.54266 2844:155.44938 2845:-6.1301079 2846:8.505249 2847:-21.490072 2848:173.21826 2849:-9.1593697 2850:33.453125 2851:-58.719572 2852:163.85446 2853:-12.003656 2854:41.879074 2855:-83.68259 2856:158.24726 2857:-14.41985 2858:43.169586 2859:-100.97923 2860:154.42114 2861:7.1718407 2862:32.567383 2863:-92.206047 2864:155.31842 2865:14.871468 2866:8.2987213 2867:-18.356249 2868:170.40042 2869:12.316835 2870:28.420166 2871:-54.718625 2872:163.43927 2873:8.843977 2874:32.492599 2875:-79.973122 2876:158.02873 2877:5.5878067 2878:29.770386 2879:-96.859486 2880:154.17005 2881:53.572304 2882:16.137436 2883:-70.085806 2884:154.20462 2885:33.842442 2886:3.7182312 2887:-14.199574 2888:166.2537 2889:46.074982 2890:16.866364 2891:-41.826886 2892:160.46177 2893:50.946518 2894:17.797531 2895:-59.365889 2896:156.67704 2897:53.191826 2898:13.470612 2899:-74.671234 2900:153.21437 2901:-83.593669 2902:-37.594711 2903:-4.0387383 2904:157.02739 2905:-12.166279 2906:-15.486633 2907:53.766918 2908:162.02633 2909:-46.301467 2910:-27.097885 2911:24.374798 2912:164.6709 2913:-69.949206 2914:-34.84201 2915:4.6169281 2916:160.76597 2917:-87.165492 2918:-39.55983 2919:-7.9132919 2920:155.82271 2921:-48.983172 2922:27.718292 2923:-85.347477 2924:158.41654 2925:-26.213279 2926:4.7434692 2927:-19.533714 2928:175.36824 2929:-37.899035 2930:23.455765 2931:-52.943538 2932:166.56416 2933:-44.706511 2934:28.027771 2935:-73.922098 2936:161.33378 2937:-49.329871 2938:27.120026 2939:-89.131016 2940:157.52672 2941:-13.760406 2942:34.243668 2943:-99.142441 2944:157.13271 2945:-5.9291296 2946:7.6426697 2947:-21.867235 2948:175.77608 2949:-8.9597462 2950:29.956177 2951:-60.732784 2952:166.08976 2953:-12.06319 2954:34.424316 2955:-86.668152 2956:160.03401 2957:-14.698906 2958:31.678787 2959:-103.76178 2960:155.92505 2961:7.1361208 2962:26.253265 2963:-93.441727 2964:157.45452 2965:15.042802 2966:7.5585632 2967:-18.535469 2968:171.80782 2969:12.528848 2970:25.961792 2971:-55.799689 2972:165.70663 2973:8.8963728 2974:27.791473 2975:-81.292679 2976:160.24833 2977:5.4953737 2978:22.963791 2979:-97.672207 2980:156.36077 2981:49.609857 2982:9.7939453 2983:-71.179607 2984:156.35811 2985:33.972714 2986:3.1450043 2987:-14.025969 2988:167.00091 2989:44.382833 2990:14.709518 2991:-43.071935 2992:162.24799 2993:47.678346 2994:13.476959 2995:-60.955894 2996:158.7433 2997:48.140794 2998:6.5574646 2999:-75.444649 3000:155.57545 3001:-80.759914 3002:-39.285797 3003:-6.5422211 3004:157.38717 3005:-12.789283 3006:-13.920822 3007:54.049805 3008:160.03248 3009:-45.563877 3010:-26.825089 3011:23.665016 3012:163.35612 3013:-67.9244 3014:-35.653137 3015:2.8892441 3016:160.67638 3017:-83.972591 3018:-41.31842 3019:-10.749847 3020:156.36595 3021:-47.292018 3022:24.070297 3023:-86.914124 3024:160.02711 3025:-25.981327 3026:4.0591278 3027:-19.992414 3028:176.49608 3029:-36.925275 3030:21.754135 3031:-54.198256 3032:168.31034 3033:-43.233333 3034:25.06044 3035:-75.566965 3036:162.97875 3037:-47.408382 3038:22.830826 3039:-90.769215 3040:159.09351 3041:-13.340414 3042:27.278946 3043:-100.39949 3044:158.57374 3045:-5.6794071 3046:6.9640808 3047:-22.158218 3048:177.28653 3049:-8.5755774 3050:27.367691 3051:-62.06954 3052:167.82484 3053:-11.670789 3054:29.327896 3055:-88.314846 3056:161.54224 3057:-14.279807 3058:24.245239 3059:-104.8689 3060:157.33767 3061:7.7817273 3062:22.059525 3063:-93.938343 3064:159.10431 3065:15.249089 3066:7.0587769 3067:-18.563944 3068:172.10223 3069:12.974774 3070:24.262894 3071:-56.411893 3072:167.27667 3073:9.4212651 3074:24.560699 3075:-81.97982 3076:161.90469 3077:6.0692725 3078:18.345947 3079:-97.895325 3080:158.05615 3081:48.536614 3082:6.6780396 3083:-71.028618 3084:157.73808 3085:34.135666 3086:2.8534241 3087:-13.68862 3088:166.89432 3089:43.977932 3090:13.554214 3091:-43.258866 3092:163.18538 3093:46.776261 3094:11.284866 3095:-61.126015 3096:160.01109 3097:46.681176 3098:3.2207947 3099:-75.017702 3100:157.11876 3101:-75.42082 3102:-41.934311 3103:-11.532848 3104:158.2997 3105:-14.625709 3106:-11.388138 3107:54.176888 3108:156.40167 3109:-44.415533 3110:-26.26062 3111:21.691437 3112:160.96901 3113:-63.95408 3114:-36.816849 3115:-1.0323753 3116:160.63707 3117:-77.441457 3118:-44.026321 3119:-16.581612 3120:157.8701 3121:-42.342252 3122:13.757477 3123:-89.73418 3124:163.13175 3125:-25.260046 3126:2.6048737 3127:-21.126932 3128:176.17366 3129:-34.446468 3130:17.447311 3131:-57.157956 3132:171.63173 3133:-39.354578 3134:16.776779 3135:-79.130796 3136:166.04809 3137:-42.144727 3138:10.490707 3139:-93.490845 3140:162.06666 3141:-11.373419 3142:13.411545 3143:-100.4529 3144:161.58998 3145:-4.9362552 3146:5.7394257 3147:-22.68112 3148:176.10057 3149:-7.2072058 3150:22.917358 3151:-64.122282 3152:170.89863 3153:-9.9771419 3154:19.449203 3155:-90.247715 3156:164.42857 3157:-12.244227 3158:9.3649139 3159:-104.38436 3160:160.35848 3161:9.7017598 3162:12.879089 3163:-93.612129 3164:161.97145 3165:15.836623 3166:6.3691254 3167:-18.319845 3168:170.56706 3169:14.29987 3170:21.029205 3171:-57.260079 3172:169.33771 3173:11.114178 3174:17.533524 3175:-82.63855 3176:164.57598 3177:8.0536828 3178:7.9471893 3179:-96.847626 3180:161.06413 3181:47.310896 3182:2.9925079 3183:-69.779623 3184:159.65067 3185:34.585001 3186:2.7350616 3187:-12.536392 3188:165.15914 3189:43.460082 3190:12.665817 3191:-42.675895 3192:163.85893 3193:45.614306 3194:9.2093506 3195:-60.441811 3196:161.6246 3197:44.910254 3198:-0.21340942 3199:-73.431553 3200:159.41443 3201:-71.798536 3202:-41.186142 3203:-15.568153 3204:157.7317 3205:-16.143347 3206:-9.6336975 3207:54.086235 3208:154.49492 3209:-43.947248 3210:-24.549515 3211:19.90451 3212:159.16591 3213:-61.297873 3214:-35.532852 3215:-4.3417778 3216:159.65006 3217:-72.744398 3218:-43.28125 3219:-21.211992 3220:157.72642 3221:-38.264906 3222:4.2972107 3223:-89.551418 3224:164.13737 3225:-24.692476 3226:2.5818634 3227:-21.790321 3228:174.07673 3229:-32.425997 3230:15.037735 3231:-59.045752 3232:172.22736 3233:-36.385555 3234:10.266937 3235:-80.699995 3236:166.78128 3237:-38.263746 3238:0.092391968 3239:-92.802132 3240:163.0751 3241:40.825052 3242:-0.40037537 3243:-68.832027 3244:162.87458 3245:34.922209 3246:1.6639099 3247:-11.765827 3248:165.033 3249:40.823751 3250:11.446884 3251:-42.672813 3252:165.78652 3253:40.76549 3254:7.1417389 3255:-60.38377 3256:164.38678 3257:38.110723 3258:-3.2916565 3259:-72.304918 3260:162.79797 3261:-10.839473 3262:0.55778503 3263:-98.96917 3264:163.02107 3265:-4.2738446 3266:5.2401428 3267:-22.93504 3268:175.19204 3269:-6.2219455 3270:17.980194 3271:-65.964149 3272:172.40612 3273:-9.2000046 3274:9.8753662 3275:-91.017727 3276:165.66831 3277:-11.669929 3278:-3.2391968 3279:-102.35725 3280:161.84258 3281:9.9426365 3282:2.730545 3283:-92.050728 3284:163.85453 3285:16.399427 3286:5.5422516 3287:-18.092083 3288:170.37785 3289:15.131765 3290:16.768845 3291:-58.166736 3292:170.98713 3293:11.658453 3294:9.6482544 3295:-82.736401 3296:166.29052 3297:8.2998438 3298:-2.4231262 3299:-94.826233 3300:162.98624 3301:-70.077842 3302:-40.766556 3303:-17.379456 3304:157.98032 3305:-16.365343 3306:-9.7669525 3307:53.995541 3308:154.73184 3309:-43.475455 3310:-24.283646 3311:19.092297 3312:159.39387 3313:-60.002303 3314:-35.145462 3315:-5.7762451 3316:159.90347 3317:-70.595881 3318:-42.927567 3319:-23.179688 3320:158.04353 3321:-37.639108 3322:2.7375031 3323:-88.932159 3324:163.68498 3325:-24.615092 3326:2.9702454 3327:-21.82836 3328:173.95486 3329:-32.116714 3330:15.245499 3331:-59.191 3332:171.61513 3333:-35.96071 3334:9.3524475 3335:-80.588207 3336:166.22842 3337:-37.674119 3338:-1.9015503 3339:-91.720253 3340:162.69855 3341:37.236012 3342:-1.9749298 3343:-68.418539 3344:163.98429 3345:34.963998 3346:1.3560333 3347:-11.680927 3348:165.63681 3349:39.281507 3350:10.809525 3351:-42.950193 3352:166.6817 3353:38.058084 3354:5.9287415 3355:-60.468661 3356:165.35234 3357:34.46771 3358:-5.0361938 3359:-71.644386 3360:163.88614 3361:-11.747477 3362:-3.5050201 3363:-98.079685 3364:162.65285 3365:-4.1666691 3366:5.4158325 3367:-22.913937 3368:175.69461 3369:-6.5214013 3370:16.329193 3371:-66.422121 3372:172.05036 3373:-9.8938959 3374:6.6944122 3375:-90.8769 3376:165.23248 3377:-12.593388 3378:-7.1926117 3379:-101.19875 3380:161.51796 3381:9.1279821 3382:-0.90110779 3383:-91.020927 3384:163.87774 3385:16.49788 3386:5.4686737 3387:-18.024834 3388:170.9894 3389:14.966483 3390:15.393158 3391:-58.432516 3392:171.19927 3393:11.125077 3394:6.9042664 3395:-82.507763 3396:166.24818 3397:7.5241632 3398:-5.9956207 3399:-93.633797 3400:163.00442 3401:-68.217823 3402:-40.697372 3403:-18.745665 3404:158.16069 3405:-16.4178 3406:-9.7188416 3407:53.9883 3408:154.76595 3409:-42.89185 3410:-24.124435 3411:18.554806 3412:159.40708 3413:-58.559544 3414:-35.090637 3415:-6.8189278 3416:160.02282 3417:-68.367489 3418:-43.014877 3419:-24.614298 3420:158.28846 3421:34.439999 3422:-3.911972 3423:-67.963303 3424:164.93739 3425:34.96706 3426:1.0570679 3427:-11.702618 3428:166.10673 3429:37.98711 3430:9.8423309 3431:-43.317092 3432:167.45022 3433:35.809807 3434:4.2140045 3435:-60.51584 3436:166.19883 3437:31.498974 3438:-7.3487396 3439:-70.798685 3440:164.87758 3441:-37.548569 3442:1.9363251 3443:-88.520679 3444:163.3822 3445:-24.601547 3446:3.2376404 3447:-21.805599 3448:173.64729 3449:-32.062551 3450:15.414703 3451:-59.208483 3452:171.17352 3453:-35.945997 3454:8.9300842 3455:-80.426716 3456:165.87 3457:-37.655848 3458:-2.8612061 3459:-90.98856 3460:162.45632 3461:-12.98474 3462:-7.2642059 3463:-97.187847 3464:162.47819 3465:-4.1322625 3466:5.4973907 3467:-22.900742 3468:175.9417 3469:-7.1514206 3470:14.372986 3471:-66.829287 3472:171.84975 3473:-11.006958 3474:3.3053131 3475:-90.5965 3476:164.99187 3477:-13.946222 3478:-11.196136 3479:-99.963776 3480:161.38442 3481:7.8027182 3482:-5.7609863 3483:-89.631275 3484:164.12404 3485:16.535206 3486:5.351181 3487:-18.025902 3488:171.44584 3489:14.447767 3490:13.318253 3491:-58.839985 3492:171.48604 3493:10.121328 3494:3.170166 3495:-82.17951 3496:166.36692 3497:6.2677526 3498:-10.582733 3499:-92.137928 3500:163.24255 3501:-65.846665 3502:-40.222824 3503:-20.76771 3504:158.18493 3505:-16.43693 3506:-10.037994 3507:53.924046 3508:155.17785 3509:-42.170846 3510:-23.929855 3511:17.747936 3512:159.59876 3513:-56.859822 3514:-34.744797 3515:-8.2680435 3516:160.05884 3517:-65.757672 3518:-42.649185 3519:-26.544083 3520:158.27025 3521:-37.438775 3522:-0.43249512 3523:-87.145706 3524:162.44112 3525:-24.600987 3526:3.920639 3527:-21.693836 3528:173.16116 3529:-32.063773 3530:15.278809 3531:-59.353126 3532:169.91657 3533:-35.998745 3534:7.0956726 3535:-79.966164 3536:164.72568 3537:-37.615317 3538:-5.9492188 3539:-88.951035 3540:161.61342 3541:-15.586176 3542:-13.774078 3543:-94.88575 3544:161.77565 3545:-4.0979233 3546:5.8292694 3547:-22.824711 3548:176.67433 3549:-8.5816376 3550:10.893082 3551:-67.23037 3552:170.95436 3553:-13.380503 3554:-2.6600189 3555:-89.490719 3556:164.12531 3557:-16.728899 3558:-18.086777 3559:-97.072304 3560:160.7535 3561:5.3125978 3562:-12.711578 3563:-87.038052 3564:164.22865 3565:16.577228 3566:5.2612305 3567:-18.013775 3568:172.63803 3569:13.311656 3570:10.085724 3571:-59.240968 3572:171.72899 3573:8.0579181 3574:-2.5943604 3575:-81.105293 3576:166.28537 3577:3.7726016 3578:-17.486786 3579:-89.043453 3580:163.41017 3581:30.27296 3582:-7.8527985 3583:-66.811781 3584:166.25596 3585:34.947475 3586:0.56942749 3587:-11.794643 3588:167.29846 3589:36.052524 3590:7.557663 3591:-43.977248 3592:168.72197 3593:32.480537 3594:0.39074707 3595:-60.350759 3596:167.36913 3597:27.214485 3598:-12.177841 3599:-68.854666 3600:166.22372 3601:-64.649799 3602:-39.662888 3603:-22.055716 3604:158.03677 3605:-16.311517 3606:-10.698486 3607:53.835056 3608:155.81571 3609:-41.755642 3610:-23.944595 3611:17.214489 3612:159.94651 3613:-56.034199 3614:-34.40506 3615:-9.1722832 3616:160.0479 3617:-64.573658 3618:-42.091187 3619:-27.71051 3620:158.00476 3621:-37.452877 3622:-2.6643066 3623:-85.976162 3624:161.32075 3625:-24.649904 3626:4.597641 3627:-21.504568 3628:172.81026 3629:-32.125639 3630:14.66832 3631:-59.52585 3632:168.61719 3633:-36.057766 3634:5.1732635 3635:-79.568983 3636:163.45727 3637:-37.600769 3638:-8.5670013 3639:-87.464226 3640:160.53948 3641:-17.723164 3642:-19.684677 3643:-91.941643 3644:160.96001 3645:-4.128962 3646:6.2541504 3647:-22.706347 3648:177.38468 3649:-9.8884954 3650:7.6472626 3651:-67.231569 3652:169.76361 3653:-15.357629 3654:-8.1815796 3655:-87.768742 3656:163.09362 3657:-18.892559 3658:-24.335083 3659:-93.53466 3660:160.03654 3661:3.584259 3662:-16.677551 3663:-85.105038 3664:163.84888 3665:16.559525 3666:5.3353882 3667:-18.008251 3668:173.83588 3669:12.435402 3670:7.883316 3671:-59.361856 3672:171.41601 3673:6.5614672 3674:-6.5505524 3675:-79.943296 3676:165.79869 3677:2.043364 3678:-22.111847 3679:-86.314743 3680:163.17991 3681:27.662266 3682:-10.218674 3683:-65.969149 3684:166.77295 3685:34.895382 3686:0.30116272 3687:-11.957664 3688:168.45345 3689:34.825233 3690:6.154068 3691:-44.38474 3692:169.47024 3693:30.423866 3694:-1.947876 3695:-60.107402 3696:167.84264 3697:24.654499 3698:-15.042847 3699:-67.404898 3700:166.74968 3701:-63.84443 3702:-39.655548 3703:-22.678766 3704:158.07746 3705:-16.166866 3706:-11.121277 3707:53.792999 3708:156.21964 3709:-41.359044 3710:-24.190079 3711:16.935303 3712:160.23599 3713:-55.420712 3714:-34.531052 3715:-9.6145363 3716:160.16081 3717:-63.724168 3718:-42.161514 3719:-28.28252 3720:157.99251 3721:-37.61033 3722:-3.8110199 3723:-85.387108 3724:160.72763 3725:-24.705661 3726:4.9090118 3727:-21.371342 3728:172.67255 3729:-32.296191 3730:14.255692 3731:-59.554411 3732:167.96488 3733:-36.255177 3734:4.1866455 3735:-79.310059 3736:162.80368 3737:-37.770665 3738:-9.800766 3739:-86.764336 3740:159.96018 3741:-18.73014 3742:-22.182648 3743:-90.369808 3744:160.54275 3745:-4.1817611 3746:6.4827118 3747:-22.632454 3748:177.6976 3749:-10.597166 3750:6.2084503 3751:-67.088902 3752:169.12118 3753:-16.347947 3754:-10.629044 3755:-86.72728 3756:162.56485 3757:-19.914783 3758:-27.065063 3759:-91.607056 3760:159.68803 3761:2.9576044 3762:-18.779694 3763:-83.947201 3764:163.59098 3765:16.519038 3766:5.4259338 3767:-18.018372 3768:174.42272 3769:12.113791 3770:6.688736 3771:-59.402184 3772:171.06695 3773:6.0588923 3774:-8.6631622 3775:-79.253948 3776:165.4443 3777:1.5079803 3778:-24.528442 3779:-84.798702 3780:162.99804 3781:26.473388 3782:-11.42189 3783:-65.4583 3784:166.8557 3785:34.85316 3786:0.25216675 3787:-12.081295 3788:169.00456 3789:34.246345 3790:5.4687805 3791:-44.61121 3792:169.66747 3793:29.490134 3794:-3.1394043 3795:-59.956998 3796:167.88665 3797:23.541005 3798:-16.499008 3799:-66.601255 3800:166.84007 3801:-62.288764 3802:-40.031052 3803:-23.666834 3804:158.38522 3805:-16.036083 3806:-11.611267 3807:53.728569 3808:156.56638 3809:-40.636901 3810:-24.630341 3811:16.456161 3812:160.62292 3813:-54.176314 3814:-34.94281 3815:-10.374744 3816:160.51535 3817:-62.074904 3818:-42.552414 3819:-29.22603 3820:158.27062 3821:-37.398204 3822:-9.4282837 3823:-83.689381 3824:160.21718 3825:-24.757194 3826:5.1230927 3827:-21.261179 3828:172.62445 3829:-32.558074 3830:10.794266 3831:-60.118701 3832:167.20433 3833:-36.293178 3834:-1.4374695 3835:-78.659967 3836:162.07764 3837:-37.501204 3838:-16.156174 3839:-84.610653 3840:159.48877 3841:-19.807825 3842:-26.418808 3843:-87.674686 3844:160.34014 3845:-4.2355793 3846:6.6956482 3847:-22.560337 3848:177.96529 3849:-11.648044 3850:3.1369476 3851:-66.719137 3852:168.50874 3853:-17.642382 3854:-15.5616 3855:-84.514385 3856:162.21217 3857:-21.068438 3858:-32.442795 3859:-87.671139 3860:159.7399 3861:2.2253981 3862:-23.179459 3863:-81.508501 3864:163.57873 3865:16.476295 3866:5.5830536 3867:-18.009502 3868:174.83032 3869:11.538777 3870:3.9048157 3871:-59.318407 3872:170.65943 3873:5.3119926 3874:-13.248978 3875:-77.577919 3876:165.24155 3877:0.84819746 3878:-29.609268 3879:-81.524813 3880:163.20736 3881:24.743943 3882:-13.689941 3883:-64.256246 3884:167.01398 3885:34.822221 3886:0.34283447 3887:-12.167961 3888:169.35783 3889:33.197305 3890:4.3162842 3891:-44.838253 3892:169.75036 3893:27.90463 3894:-5.2370453 3895:-59.430621 3896:167.93797 3897:21.793815 3898:-19.064941 3899:-64.858747 3900:167.11084 3901:-59.072955 3902:-37.737152 3903:-26.584126 3904:153.55806 3905:-11.050506 3906:-26.238419 3907:49.680668 3908:172.44038 3909:-42.26987 3910:-29.696228 3911:15.368511 3912:165.29006 3913:-55.497409 3914:-34.301666 3915:-13.151352 3916:157.36737 3917:-58.767638 3918:-38.602432 3919:-34.281276 3920:151.83632 3921:-24.905129 3922:-26.524811 3923:-24.123695 3924:161.741 3925:-26.607247 3926:9.8986206 3927:-16.890062 3928:162.91404 3929:-37.160254 3930:2.5024719 3931:-54.795923 3932:152.20301 3933:-38.02558 3934:-18.03627 3935:-64.002216 3936:148.74201 3937:-35.930674 3938:-33.651657 3939:-61.703968 3940:148.76306 3941:-12.381593 3942:-30.305237 3943:-20.570177 3944:164.63724 3945:-6.2982972 3946:12.418411 3947:-19.438496 3948:164.07 3949:-17.571632 3950:-2.2387238 3951:-60.373676 3952:152.25451 3953:-21.561623 3954:-27.870117 3955:-65.791265 3956:149.34617 3957:-21.866153 3958:-44.31424 3959:-59.776663 3960:150.46459 3961:2.8207018 3962:-31.158463 3963:-18.038813 3964:166.43685 3965:14.746816 3966:10.776138 3967:-17.128553 3968:164.77613 3969:6.2946217 3970:-2.0552368 3971:-55.826582 3972:154.27402 3973:0.33942771 3974:-26.16214 3975:-62.88545 3976:151.42486 3977:-2.2325232 3978:-42.621597 3979:-57.822445 3980:152.52581 3981:16.841527 3982:-19.492981 3983:-20.021757 3984:164.72082 3985:33.583539 3986:4.7375946 3987:-14.50741 3988:163.86814 3989:28.952798 3990:-1.8441467 3991:-46.460712 3992:156.00578 3993:22.129215 3994:-17.685059 3995:-52.353067 3996:154.46301 3997:16.469854 3998:-32.158066 3999:-48.288476 4000:155.80732 4001:-57.61439 4002:-37.840134 4003:-26.988001 4004:148.53581 4005:-8.5957646 4006:-31.276794 4007:47.186989 4008:175.68167 4009:-43.337764 4010:-32.342239 4011:16.271175 4012:161.81423 4013:-56.219958 4014:-35.21167 4015:-12.631693 4016:152.52461 4017:-57.028171 4018:-38.197586 4019:-34.220945 4020:146.70539 4021:-19.878995 4022:-35.384216 4023:-12.797289 4024:159.30192 4025:-27.42311 4026:11.120087 4027:-14.680573 4028:156.83792 4029:-36.835555 4030:-6.2243347 4031:-49.515899 4032:146.70671 4033:-33.980063 4034:-28.550064 4035:-50.38356 4036:145.91307 4037:-29.42427 4038:-41.543945 4039:-42.388893 4040:148.50768 4041:-9.2750945 4042:-38.442215 4043:-9.7398071 4044:161.62029 4045:-7.2734699 4046:14.208435 4047:-17.803301 4048:157.42172 4049:-19.063682 4050:-9.0051117 4051:-54.405626 4052:146.66816 4053:-19.833972 4054:-35.216751 4055:-50.585155 4056:146.96446 4057:-17.578008 4058:-48.305847 4059:-39.171858 4060:150.81067 4061:5.5144591 4062:-35.790863 4063:-6.4606533 4064:163.2026 4065:13.869317 4066:12.679413 4067:-16.54858 4068:158.02006 4069:3.9900565 4070:-8.3410797 4071:-51.1052 4072:148.45124 4073:-0.092220068 4074:-33.612106 4075:-47.766704 4076:148.9682 4077:-0.52343917 4078:-46.725113 4079:-36.32007 4080:152.93705 4081:15.515662 4082:-27.34729 4083:-10.190681 4084:161.19406 4085:32.870889 4086:6.7103119 4087:-15.337543 4088:157.48722 4089:25.382339 4090:-7.4553375 4091:-44.130466 4092:150.07036 4093:18.379102 4094:-24.230667 4095:-42.804294 4096:150.54925 4097:13.875875 4098:-36.134674 4099:-33.004646 4100:153.94563 4101:-55.301112 4102:-38.958481 4103:-28.218781 4104:145.5828 4105:-7.0721657 4106:-34.480606 4107:45.164242 4108:173.6279 4109:-43.81203 4110:-35.315262 4111:16.64381 4112:159.61939 4113:-55.670748 4114:-37.485245 4115:-12.753847 4116:149.8418 4117:-53.938647 4118:-39.609039 4119:-34.390715 4120:143.98356 4121:-17.057156 4122:-36.673462 4123:-9.7431145 4124:156.62122 4125:-27.918074 4126:11.352707 4127:-13.524048 4128:153.27223 4129:-32.993418 4130:-15.898209 4131:-42.412656 4132:144.94355 4133:-25.975425 4134:-35.318085 4135:-33.414795 4136:148.00303 4137:-19.950255 4138:-42.131134 4139:-20.346124 4140:152.98882 4141:-7.3969729 4142:-41.17012 4143:-8.6616306 4144:157.93083 4145:-7.9023087 4146:15.145554 4147:-16.730412 4148:153.45387 4149:-17.558217 4150:-16.788742 4151:-46.806535 4152:144.66361 4153:-14.452883 4154:-39.662628 4155:-33.791883 4156:148.77069 4157:-10.222241 4158:-46.999069 4159:-18.463621 4160:154.59141 4161:6.7183897 4162:-38.797348 4163:-6.9467945 4164:158.61527 4165:13.288846 4166:14.073227 4167:-15.884958 4168:153.78048 4169:3.5120618 4170:-14.54187 4171:-44.506825 4172:145.9517 4173:2.5272338 4174:-37.042999 4175:-31.890777 4176:149.97608 4177:4.3238266 4178:-44.755264 4179:-16.384146 4180:155.66052 4181:16.103153 4182:-28.749374 4183:-9.5157089 4184:156.88088 4185:32.446794 4186:8.52034 4187:-15.341888 4188:153.14242 4189:23.081641 4190:-12.054047 4191:-39.31615 4192:147.09958 4193:17.088384 4194:-26.984726 4195:-30.750431 4196:149.96497 4197:14.634605 4198:-33.893463 4199:-16.458277 4200:154.8987 4201:-54.517126 4202:-39.288055 4203:-28.595489 4204:145.23539 4205:-6.8994905 4206:-34.914032 4207:44.856922 4208:173.17932 4209:-43.839674 4210:-35.871933 4211:16.600346 4212:159.35094 4213:-55.260439 4214:-38.018051 4215:-12.971951 4216:149.53437 4217:-52.914034 4218:-40.033371 4219:-34.561243 4220:143.69848 4221:-16.586844 4222:-37.166122 4223:-9.5970879 4224:156.22231 4225:-27.974026 4226:11.34964 4227:-13.410528 4228:152.81921 4229:-31.580301 4230:-18.2892 4231:-40.083684 4232:145.21544 4233:-23.836018 4234:-36.177475 4235:-28.797386 4236:149.22301 4237:-17.7953 4238:-41.161713 4239:-14.934566 4240:154.49421 4241:-7.2400113 4242:-41.162048 4243:-9.0691051 4244:157.24355 4245:-7.9766513 4246:15.25946 4247:-16.59104 4248:152.94501 4249:-16.889046 4250:-18.539474 4251:-44.801139 4252:144.74962 4253:-13.005213 4254:-39.893295 4255:-29.596899 4256:149.78082 4257:-8.5174767 4258:-45.363602 4259:-13.577749 4260:155.81959 4261:6.7960075 4262:-38.881516 4263:-7.9243946 4264:157.68621 4265:13.219411 4266:14.273331 4267:-15.763891 4268:153.228 4269:3.6735433 4270:-15.788162 4271:-42.944841 4272:145.84634 4273:3.3558577 4274:-37.079178 4275:-28.349414 4276:150.62477 4277:5.5521134 4278:-43.146408 4279:-12.177597 4280:156.46891 4281:16.04015 4282:-28.943192 4283:-10.005615 4284:156.13153 4285:32.401945 4286:8.8005524 4287:-15.278358 4288:152.56431 4289:22.744562 4290:-13.116867 4291:-37.908825 4292:146.93156 4293:16.978794 4294:-27.19278 4295:-27.866906 4296:150.30573 4297:14.933788 4298:-32.664719 4299:-12.903843 4300:155.40678 4301:-52.011689 4302:-39.932098 4303:-29.607025 4304:144.65875 4305:-6.5721176 4306:-35.721573 4307:44.266384 4308:172.28947 4309:-43.607022 4310:-36.925293 4311:16.143509 4312:158.81938 4313:-53.52673 4314:-39.006073 4315:-13.970112 4316:148.97767 4317:-49.591046 4318:-40.77562 4319:-35.348697 4320:143.23254 4321:-16.299149 4322:-37.280548 4323:-10.523706 4324:155.02924 4325:-28.078875 4326:11.320862 4327:-13.214285 4328:152.00247 4329:-30.325593 4330:-19.767563 4331:-38.341663 4332:144.9572 4333:-21.962682 4334:-36.141098 4335:-25.329593 4336:149.64725 4337:-16.002877 4338:-39.396973 4339:-10.928532 4340:155.00856 4341:-7.0587304 4342:-41.271835 4343:-10.409864 4344:155.8064 4345:-8.1183909 4346:15.463074 4347:-16.331749 4348:152.03367 4349:-16.237376 4350:-19.433456 4351:-43.422759 4352:144.25786 4353:-11.691252 4354:-39.587128 4355:-26.827549 4356:149.85462 4357:-7.0380691 4358:-43.634491 4359:-10.437181 4360:155.92269 4361:7.0452849 4362:-38.793091 4363:-9.1847324 4364:156.18382 4365:13.085922 4366:14.653809 4367:-15.524361 4368:152.24229 4369:3.9274427 4370:-16.324188 4371:-41.794256 4372:145.18342 4373:4.2659456 4374:-36.585556 4375:-25.800595 4376:150.45837 4377:6.7962725 4378:-41.296188 4379:-9.2304478 4380:156.31068 4381:16.179259 4382:-28.87001 4383:-10.54323 4384:154.87576 4385:32.317004 4386:9.3463287 4387:-15.133453 4388:151.53471 4389:22.458274 4390:-13.61702 4391:-36.610579 4392:146.27623 4393:17.036163 4394:-26.913025 4395:-25.384173 4396:150.03887 4397:15.444421 4398:-31.166733 4399:-9.9767151 4400:155.19397 4401:-50.151126 4402:-40.098343 4403:-30.178855 4404:144.41878 4405:-6.5777972 4406:-36.070755 4407:43.981464 4408:171.83585 4409:-43.516956 4410:-37.284073 4411:15.73336 4412:158.4593 4413:-52.380943 4414:-39.297958 4415:-14.712236 4416:148.64859 4417:-47.07983 4418:-40.954117 4419:-35.802995 4420:143.07768 4421:-16.308669 4422:-37.216721 4423:-10.989164 4424:154.45865 4425:-28.077789 4426:11.396255 4427:-13.151646 4428:151.6143 4429:-30.169099 4430:-19.661819 4431:-38.329923 4432:144.58028 4433:-21.75823 4434:-35.923431 4435:-25.208857 4436:149.29817 4437:-15.835889 4438:-39.027451 4439:-10.75889 4440:154.64797 4441:-7.0744231 4442:-41.217468 4443:-10.967669 4444:155.18094 4445:-8.1184943 4446:15.581711 4447:-16.218546 4448:151.63051 4449:-16.166867 4450:-19.141098 4451:-43.552748 4452:143.81201 4453:-11.593641 4454:-39.335907 4455:-27.015086 4456:149.37111 4457:-6.9453109 4458:-43.37471 4459:-10.621233 4460:155.41847 4461:7.0665509 4462:-38.731674 4463:-9.6143188 4464:155.59414 4465:13.085849 4466:14.786545 4467:-15.398045 4468:151.83302 4469:4.0006854 4470:-16.16568 4471:-41.723712 4472:144.77717 4473:4.4059193 4474:-36.358017 4475:-25.644519 4476:150.07279 4477:6.9616897 4478:-40.955368 4479:-9.0464859 4480:155.91083 4481:16.199778 4482:-28.789764 4483:-10.797821 4484:154.35432 4485:32.32169 4486:9.4946594 4487:-15.030767 4488:151.12929 4489:22.458678 4490:-13.477905 4491:-36.496064 4492:145.88178 4493:17.069121 4494:-26.70311 4495:-25.170764 4496:149.67018 4497:15.532723 4498:-30.829391 4499:-9.7230911 4500:154.8193 4501:-45.495842 4502:-39.934509 4503:-31.249905 4504:144.22091 4505:-6.9079731 4506:-36.496964 4507:43.577385 4508:171.15043 4509:-43.255565 4510:-37.343781 4511:14.559036 4512:157.73416 4513:-49.575523 4514:-39.127258 4515:-16.528543 4516:148.08936 4517:-41.063267 4518:-40.61409 4519:-36.553417 4520:143.07798 4521:-16.498725 4522:-37.03772 4523:-11.655468 4524:153.65222 4525:-27.975855 4526:11.656998 4527:-13.140337 4528:151.05219 4529:-30.08461 4530:-19.167877 4531:-38.602135 4532:143.96497 4533:-21.772713 4534:-35.513214 4535:-25.522099 4536:148.63539 4537:-15.93178 4538:-38.655411 4539:-11.04727 4540:153.96331 4541:-7.2775953 4542:-41.08728 4543:-11.655958 4544:154.36501 4545:-7.9865287 4546:15.785522 4547:-16.086433 4548:151.09459 4549:-16.070461 4550:-18.639603 4551:-43.784257 4552:143.20326 4553:-11.63083 4554:-38.950653 4555:-27.352889 4556:148.69318 4557:-7.0589059 4558:-43.058716 4559:-10.954758 4560:154.7166 4561:6.9221804 4562:-38.715271 4563:-10.015064 4564:154.91683 4565:13.210749 4566:14.887756 4567:-15.192488 4568:151.33596 4569:4.1334307 4570:-16.147659 4571:-41.422737 4572:144.32997 4573:4.4957525 4574:-36.158569 4575:-25.11731 4576:149.70794 4577:7.0200025 4578:-40.564163 4579:-8.4625397 4580:155.54384 4581:16.081791 4582:-28.76709 4583:-11.026541 4584:153.76508 4585:32.421551 4586:9.507019 4587:-14.806202 4588:150.67998 4589:22.46706 4590:-13.456467 4591:-36.23896 4592:145.44682 4593:17.012619 4594:-26.540421 4595:-24.781435 4596:149.27675 4597:15.478604 4598:-30.485397 4599:-9.286232 4600:154.42375 4601:-43.094028 4602:-39.356186 4603:-32.311689 4604:143.68524 4605:-7.2985811 4606:-37.085129 4607:43.013504 4608:170.38847 4609:-43.015823 4610:-37.337677 4611:13.211765 4612:156.9223 4613:-48.150829 4614:-38.675339 4615:-18.115583 4616:147.3336 4617:-38.124142 4618:-39.937103 4619:-37.442719 4620:142.61285 4621:-16.699631 4622:-36.765564 4623:-12.334852 4624:152.83343 4625:-27.853376 4626:12.016693 4627:-13.07634 4628:150.44284 4629:-30.040339 4630:-18.434647 4631:-38.977233 4632:143.29348 4633:-21.870237 4634:-34.988937 4635:-26.071826 4636:147.88398 4637:-16.108974 4638:-38.330017 4639:-11.609613 4640:153.18183 4641:-7.5041795 4642:-40.873489 4643:-12.37392 4644:153.53907 4645:-7.8281593 4646:16.066299 4647:-15.885044 4648:150.51804 4649:-16.007117 4650:-17.908005 4651:-44.106677 4652:142.54683 4653:-11.748074 4654:-38.457855 4655:-27.926345 4656:147.93503 4657:-7.2636352 4658:-42.789047 4659:-11.56151 4660:153.92621 4661:6.7478452 4662:-38.628632 4663:-10.438826 4664:154.23349 4665:13.359658 4666:15.026978 4667:-14.922815 4668:150.80536 4669:4.2206335 4670:-15.827347 4671:-41.344584 4672:143.79906 4673:4.4659576 4674:-35.874603 4675:-25.081675 4676:149.17988 4677:6.9292374 4678:-40.34314 4679:-8.4345455 4680:155.0055 4681:15.944246 4682:-28.711823 4683:-11.302174 4684:153.1561 4685:32.536095 4686:9.5246735 4687:-14.541216 4688:150.20503 4689:22.467695 4690:-13.227142 4691:-36.145816 4692:144.94955 4693:16.927965 4694:-26.318665 4695:-24.737977 4696:148.7701 4697:15.364037 4698:-30.316208 4699:-9.2592449 4700:153.90412 4701:-38.771988 4702:-38.44339 4703:-33.52906 4704:143.23605 4705:-7.9387587 4706:-37.77327 4707:42.295307 4708:169.47942 4709:-42.472343 4710:-37.05159 4711:11.137005 4712:155.85407 4713:-45.696716 4714:-37.788681 4715:-20.463951 4716:146.40207 4717:-32.993507 4718:-38.871674 4719:-38.159159 4720:142.3399 4721:-17.079824 4722:-36.348801 4723:-13.215534 4724:151.88282 4725:-27.648266 4726:12.561508 4727:-12.999399 4728:149.74132 4729:-30.02264 4730:-17.413132 4731:-39.43434 4732:142.53105 4733:-22.092119 4734:-34.240799 4735:-26.734678 4736:147.0356 4737:-16.451076 4738:-37.831131 4739:-12.284805 4740:152.29784 4741:-7.8222292 4742:-40.58847 4743:-12.915815 4744:152.73696 4745:-7.5647004 4746:16.437393 4747:-15.630987 4748:149.88062 4749:-15.786278 4750:-17.565292 4751:-43.806004 4752:142.02919 4753:-11.680256 4754:-37.963226 4755:-27.39554 4756:147.53254 4757:-7.2956064 4758:-42.170242 4759:-10.971375 4760:153.50783 4761:6.59927 4762:-38.577728 4763:-9.8814259 4764:153.87303 4765:13.60486 4766:15.144348 4767:-14.578671 4768:150.24684 4769:4.3477113 4770:-16.368637 4771:-40.168871 4772:143.57067 4773:4.5863978 4774:-35.874771 4775:-23.260618 4776:149.25286 4777:7.0355017 4778:-40.001343 4779:-6.523365 4780:155.08275 4781:15.684187 4782:-28.7173 4783:-11.433504 4784:152.59619 4785:32.716892 4786:9.4222717 4787:-14.198227 4788:149.73421 4789:22.348747 4790:-13.212433 4791:-35.78407 4792:144.52822 4793:16.714207 4794:-26.188385 4795:-24.290934 4796:148.39515 4797:15.15469 4798:-30.137741 4799:-8.7993965 4800:153.5204 4801:-35.346105 4802:-38.071106 4803:-33.981762 4804:143.97099 4805:-8.7357534 4806:-37.59668 4807:42.29554 4808:169.79236 4809:-41.993677 4810:-36.40834 4811:9.7928085 4812:155.91378 4813:-43.685552 4814:-37.151443 4815:-21.926991 4816:146.68602 4817:-29.192701 4818:-38.481964 4819:-38.170502 4820:143.22367 4821:-17.475942 4822:-36.151108 4823:-13.390934 4824:152.32961 4825:-27.387863 4826:12.891006 4827:-13.226084 4828:150.10259 4829:-29.939371 4830:-17.114151 4831:-39.609851 4832:142.96691 4833:-22.308756 4834:-33.982559 4835:-26.781153 4836:147.53617 4837:-16.82567 4838:-37.560181 4839:-12.267469 4840:152.8098 4841:-8.2047843 4842:-40.526367 4843:-12.769062 4844:153.35839 4845:-7.2373689 4846:16.505859 4847:-15.713606 4848:150.33024 4849:-15.593474 4850:-17.761963 4851:-43.525465 4852:142.64604 4853:-11.787562 4854:-37.923752 4855:-26.754775 4856:148.33122 4857:-7.5595502 4858:-41.914139 4859:-10.235754 4860:154.32774 4861:6.3786064 4862:-38.715805 4863:-8.6934547 4864:154.91323 4865:13.905515 4866:14.944641 4867:-14.500877 4868:150.7822 4869:4.4841009 4870:-17.325378 4871:-39.067207 4872:144.48146 4873:4.5647665 4874:-36.2164 4875:-21.47295 4876:150.49648 4877:6.9261476 4878:-39.916916 4879:-4.6238441 4880:156.34735 4881:15.456688 4882:-29.053192 4883:-10.199799 4884:153.63261 4885:32.939547 4886:8.9798584 4887:-13.968258 4888:150.3442 4889:22.024197 4890:-14.423096 4891:-34.436121 4892:145.53913 4893:16.445566 4894:-26.825439 4895:-22.300381 4896:149.67478 4897:15.002968 4898:-30.276535 4899:-6.6790428 4900:154.82712 4901:-34.514067 4902:-37.497589 4903:-34.444682 4904:143.93931 4905:-9.3081323 4906:-37.699692 4907:42.081215 4908:169.62 4909:-42.048876 4910:-35.924408 4911:9.0839233 4912:155.63156 4913:-43.291727 4914:-36.466721 4915:-22.660706 4916:146.50601 4917:-28.388609 4918:-37.892258 4919:-38.520392 4920:143.22901 4921:-17.81708 4922:-35.900192 4923:-13.680429 4924:152.23826 4925:-27.194903 4926:13.243042 4927:-13.27636 4928:150.0392 4929:-29.952145 4930:-16.617203 4931:-39.803446 4932:142.91277 4933:-22.54909 4934:-33.609634 4935:-27.005131 4936:147.47721 4937:-17.165506 4938:-37.287537 4939:-12.479269 4940:152.74429 4941:-8.5017735 4942:-40.36557 4943:-12.707214 4944:153.43404 4945:-6.9971353 4946:16.655304 4947:-15.66466 4948:150.33488 4949:-15.518987 4950:-17.713882 4951:-43.300598 4952:142.75408 4953:-11.912203 4954:-37.748291 4955:-26.334376 4956:148.53996 4957:-7.7728549 4958:-41.65097 4959:-9.7720051 4960:154.53788 4961:6.0577115 4962:-38.750778 4963:-8.5498009 4964:155.08652 4965:14.12283 4966:14.863953 4967:-14.373236 4968:150.85878 4969:4.4712142 4970:-17.390381 4971:-38.87069 4972:144.62518 4973:4.333733 4974:-36.214111 4975:-21.204796 4976:150.70554 4977:6.6095179 4978:-39.90947 4979:-4.3427811 4980:156.5653 4981:15.22088 4982:-29.245026 4983:-9.8458309 4984:153.89221 4985:33.0902 4986:8.694931 4987:-13.791336 4988:150.48989 4989:21.85811 4990:-14.792343 4991:-33.989487 4992:145.79975 4993:16.227007 4994:-27.03952 4995:-21.721128 4996:150.00392 4997:14.792086 4998:-30.424072 4999:-6.0845337 5000:155.15985 5001:-32.74649 5002:-36.56337 5003:-35.189774 5004:143.77933 5005:-10.347746 5006:-37.819473 5007:41.729465 5008:169.15458 5009:-42.016141 5010:-35.059967 5011:7.7673302 5012:154.9971 5013:-42.26896 5014:-35.323746 5015:-24.00415 5016:146.06402 5017:-26.543605 5018:-36.983322 5019:-39.024927 5020:143.15365 5021:-18.428077 5022:-35.446381 5023:-14.160915 5024:151.92323 5025:-26.834428 5026:13.863632 5027:-13.375923 5028:149.81144 5029:-29.963855 5030:-15.756348 5031:-40.130103 5032:142.68142 5033:-22.977672 5034:-32.955246 5035:-27.373293 5036:147.22071 5037:-17.776266 5038:-36.799179 5039:-12.824062 5040:152.47228 5041:-8.9324112 5042:-40.058624 5043:-12.15526 5044:153.55219 5045:-6.5573096 5046:16.901794 5047:-15.590757 5048:150.23334 5049:-15.346207 5050:-17.902161 5051:-42.591655 5052:142.90261 5053:-12.037966 5054:-37.526825 5055:-25.094028 5056:148.91819 5057:-8.0358973 5058:-41.151245 5059:-8.434967 5060:154.91437 5061:5.4280524 5062:-38.794937 5063:-8.4738922 5064:155.17714 5065:14.513926 5066:14.692642 5067:-14.158144 5068:150.89273 5069:4.4302154 5070:-17.377121 5071:-38.723767 5072:144.68536 5073:3.8530092 5074:-36.168365 5075:-21.032213 5076:150.81677 5077:5.9575057 5078:-39.90564 5079:-4.1571922 5080:156.6923 5081:14.754437 5082:-29.518646 5083:-9.631813 5084:154.08474 5085:33.353846 5086:8.1536255 5087:-13.48344 5088:150.65583 5089:21.716195 5090:-15.156677 5091:-33.656964 5092:145.99834 5093:15.856099 5094:-27.273941 5095:-21.366844 5096:150.23425 5097:14.328095 5098:-30.643509 5099:-5.7358322 5100:155.39213 5101:-31.434563 5102:-36.168365 5103:-35.910244 5104:144.08559 5105:-11.697907 5106:-37.628021 5107:41.545494 5108:169.23272 5109:-42.196793 5110:-34.442444 5111:6.5655098 5112:154.9852 5113:-41.455262 5114:-34.736633 5115:-25.198053 5116:146.19931 5117:-25.133614 5118:-36.661087 5119:-39.535593 5120:143.51361 5121:-18.60431 5122:-35.214783 5123:-14.451292 5124:152.20538 5125:-26.369095 5126:14.211426 5127:-13.925112 5128:150.01379 5129:-29.287257 5130:-15.556427 5131:-40.538697 5132:142.97365 5133:-22.769345 5134:-32.717407 5135:-27.486414 5136:147.59421 5137:-17.922146 5138:-36.498734 5139:-12.799112 5140:152.85589 5141:-9.129652 5142:-39.924469 5143:-11.906487 5144:154.0288 5145:-6.0121138 5146:16.971512 5147:-15.73414 5148:150.52165 5149:-14.668199 5150:-18.034897 5151:-42.51534 5152:143.32335 5153:-11.901258 5154:-37.455322 5155:-24.698778 5156:149.46715 5157:-8.2600083 5158:-40.938309 5159:-7.9271507 5160:155.46934 5161:5.1266651 5162:-38.870758 5163:-7.9750671 5164:155.75051 5165:14.994075 5166:14.478149 5167:-13.87595 5168:151.26723 5169:4.9681721 5170:-17.701782 5171:-38.320876 5172:145.1741 5173:3.8423061 5174:-36.298065 5175:-20.450632 5176:151.41973 5177:5.5850692 5178:-39.92746 5179:-3.5109558 5180:157.31021 5181:14.562002 5182:-29.741241 5183:-9.1893654 5184:154.61439 5185:33.725978 5186:7.6847534 5187:-12.816666 5188:151.10732 5189:22.141775 5190:-15.54924 5191:-33.108645 5192:146.49152 5193:15.914733 5194:-27.534149 5195:-20.869307 5196:150.76899 5197:14.069749 5198:-30.823883 5199:-5.255497 5200:155.93525 5201:-29.530408 5202:-36.718781 5203:-35.606164 5204:145.68052 5205:-12.772682 5206:-36.294739 5207:42.406212 5208:170.18332 5209:-41.859096 5210:-33.594833 5211:6.2037239 5212:155.86761 5213:-40.076251 5214:-34.788269 5215:-25.497341 5216:147.45832 5217:-23.227624 5218:-37.399887 5219:-39.097632 5220:145.18607 5221:-18.897018 5222:-35.29715 5223:-13.339994 5224:153.89952 5225:-25.977167 5226:14.243073 5227:-14.612474 5228:151.22599 5229:-28.835798 5230:-16.713882 5231:-39.839816 5232:144.5485 5233:-22.670747 5234:-33.237396 5235:-25.828741 5236:149.49701 5237:-18.070197 5238:-36.366501 5239:-10.910488 5240:154.80275 5241:-9.6098231 5242:-40.075989 5243:-10.845886 5244:155.82168 5245:-5.5591391 5246:16.630463 5247:-16.256208 5248:151.91342 5249:-14.469065 5250:-18.998306 5251:-42.117607 5252:144.90186 5253:-12.192804 5254:-37.917358 5255:-23.702208 5256:151.24957 5257:-8.7861432 5258:-40.952072 5259:-6.7947388 5260:157.27621 5261:4.7420789 5262:-39.151505 5263:-5.7461243 5264:158.10384 5265:15.381722 5266:13.856461 5267:-14.084829 5268:152.82237 5269:5.0904104 5270:-19.467606 5271:-36.82723 5272:147.21433 5273:3.6339723 5274:-37.076004 5275:-18.00548 5276:153.85558 5277:5.1970602 5278:-39.993195 5279:-0.91135406 5280:159.77254 5281:14.210737 5282:-30.219955 5283:-8.053997 5284:156.64326 5285:33.988385 5286:6.7987976 5287:-12.622597 5288:152.78798 5289:22.212063 5290:-16.860519 5291:-32.30334 5292:148.35909 5293:15.711407 5294:-28.359009 5295:-19.743816 5296:152.78641 5297:13.695678 5298:-31.137924 5299:-4.0520401 5300:157.9808 5301:-28.977189 5302:-36.895905 5303:-35.496421 5304:146.18184 5305:-13.038605 5306:-35.848953 5307:42.703442 5308:170.43606 5309:-41.713851 5310:-33.312378 5311:6.1627083 5312:156.14807 5313:-39.669352 5314:-34.788025 5315:-25.51067 5316:147.86722 5317:-22.750089 5318:-37.607864 5319:-38.981069 5320:145.69701 5321:-18.974919 5322:-35.330536 5323:-12.856907 5324:154.46642 5325:-25.877108 5326:14.229004 5327:-14.802467 5328:151.61449 5329:-28.709336 5330:-17.176346 5331:-39.472392 5332:145.0851 5333:-22.628491 5334:-33.427597 5335:-25.110472 5336:150.15384 5337:-18.090264 5338:-36.299942 5339:-10.121651 5340:155.46668 5341:-9.7492417 5342:-40.112076 5343:-10.439072 5344:156.40458 5345:-5.4445115 5346:16.507492 5347:-16.419518 5348:152.36188 5349:-14.453497 5350:-19.349487 5351:-41.928791 5352:145.4206 5353:-12.289389 5354:-38.067673 5355:-23.295885 5356:151.83905 5357:-8.9276298 5358:-40.923599 5359:-6.3483315 5360:157.86705 5361:4.6077195 5362:-39.229996 5363:-5.1467667 5364:158.81687 5365:15.478217 5366:13.657089 5367:-14.173557 5368:153.32481 5369:5.0807711 5370:-19.935974 5371:-36.467506 5372:147.83531 5373:3.5327879 5374:-37.283127 5375:-17.41193 5376:154.56979 5377:5.0571138 5378:-40.006409 5379:-0.28234863 5380:160.49081 5381:14.097247 5382:-30.364273 5383:-7.6827316 5384:157.30144 5385:34.048642 5386:6.5275574 5387:-12.603369 5388:153.33118 5389:22.189639 5390:-17.282623 5391:-32.05115 5392:148.96823 5393:15.626357 5394:-28.617996 5395:-19.376438 5396:153.44299 5397:13.580601 5398:-31.226364 5399:-3.6592941 5400:158.64327 5401:-28.202529 5402:-37.556122 5403:-34.543816 5404:147.70145 5405:-12.9886 5406:-34.606308 5407:43.7314 5408:171.01795 5409:-41.346648 5410:-32.718231 5411:6.9049835 5412:156.97794 5413:-39.026179 5414:-35.037811 5415:-24.698742 5416:149.13193 5417:-22.086983 5418:-38.374908 5419:-38.02511 5420:147.29337 5421:-19.344891 5422:-35.469864 5423:-11.616093 5424:155.95001 5425:-25.87658 5426:14.067871 5427:-14.956602 5428:152.75292 5429:-29.105317 5430:-18.115509 5431:-38.551686 5432:146.48413 5433:-23.018262 5434:-33.888168 5435:-23.668274 5436:151.72644 5437:-18.387158 5438:-36.27565 5439:-8.6228981 5440:157.02397 5441:-9.8797338 5442:-40.328674 5443:-8.1820908 5444:158.40852 5445:-5.439347 5446:16.121658 5447:-16.800188 5448:153.66948 5449:-14.827443 5450:-21.081314 5451:-40.154226 5452:147.26922 5453:-12.449524 5454:-38.812393 5455:-20.604467 5456:154.02898 5457:-8.897342 5458:-41.00824 5459:-3.5974846 5460:160.02428 5461:4.2937524 5462:-39.385544 5463:-3.7165985 5464:160.77866 5465:15.476058 5466:13.144836 5467:-14.65217 5468:154.78273 5469:4.5914576 5470:-21.126343 5471:-35.643422 5472:149.60849 5473:3.1227696 5474:-37.793976 5475:-15.984629 5476:156.55151 5477:4.7976129 5478:-39.995926 5479:1.2057381 5480:162.45586 5481:13.785764 5482:-30.689224 5483:-6.8500748 5484:159.18343 5485:33.996518 5486:5.8937988 5487:-13.048525 5488:154.9019 5489:21.721711 5490:-18.373413 5491:-31.65519 5492:150.744 5493:15.212924 5494:-29.268936 5495:-18.573181 5496:155.33589 5497:13.320369 5498:-31.405365 5499:-2.7658653 5500:160.53099 5501:-27.84605 5502:-38.261978 5503:-33.518808 5504:148.97477 5505:-12.678602 5506:-33.354874 5507:44.782173 5508:171.11319 5509:-40.986067 5510:-32.212814 5511:7.8862076 5512:157.52781 5513:-38.624048 5514:-35.415131 5515:-23.63722 5516:150.17115 5517:-21.917235 5518:-39.255157 5519:-37.120587 5520:148.62216 5521:-19.779785 5522:-35.549011 5523:-10.247421 5524:157.18134 5525:-25.957447 5526:13.931412 5527:-14.944201 5528:153.71826 5529:-29.739693 5530:-18.976471 5531:-37.431733 5532:147.69116 5533:-23.552666 5534:-34.274658 5535:-22.101007 5536:153.05683 5537:-18.73032 5538:-36.204132 5539:-7.0500069 5540:158.30689 5541:-10.050719 5542:-40.472656 5543:-5.9692841 5544:160.1291 5545:-5.5306765 5546:15.740402 5547:-17.128679 5548:154.83979 5549:-15.465053 5550:-22.539688 5551:-38.425415 5552:148.89874 5553:-12.762962 5554:-39.37532 5555:-18.13998 5556:155.88426 5557:-8.9131056 5558:-40.997849 5559:-1.1334114 5560:161.80551 5561:3.9544123 5562:-39.47879 5563:-2.4123192 5564:162.52324 5565:15.384947 5566:12.617676 5567:-15.201267 5568:156.14267 5569:3.8756737 5570:-22.211929 5571:-34.900416 5572:151.22606 5573:2.6100348 5574:-38.223923 5575:-14.690296 5576:158.32145 5577:4.5491804 5578:-39.923248 5579:2.5292969 5580:164.18773 5581:13.413432 5582:-30.994293 5583:-6.1549187 5584:160.92448 5585:33.85848 5586:5.2315521 5587:-13.674723 5588:156.41219 5589:21.064096 5590:-19.420212 5591:-31.40523 5592:152.41814 5593:14.673608 5594:-29.888016 5595:-17.921829 5596:157.09289 5597:13.016387 5598:-31.579163 5599:-2.0343819 5600:162.26751 5601:-27.972806 5602:-38.707977 5603:-32.734844 5604:149.7006 5605:-12.441161 5606:-32.432236 5607:45.520367 5608:170.86521 5609:-40.865594 5610:-31.784592 5611:8.7024193 5612:157.71481 5613:-38.615053 5614:-35.612274 5615:-22.759371 5616:150.73349 5617:-22.172506 5618:-39.830826 5619:-36.452844 5620:149.39475 5621:-20.113832 5622:-35.571808 5623:-9.1867599 5624:157.89642 5625:-26.011491 5626:13.869827 5627:-14.907473 5628:154.28736 5629:-30.222318 5630:-19.566879 5631:-36.521788 5632:148.43263 5633:-23.962118 5634:-34.518219 5635:-20.881702 5636:153.85926 5637:-18.989496 5638:-36.143799 5639:-5.8437157 5640:159.05509 5641:-10.357875 5642:-40.485764 5643:-4.8628693 5644:161.00189 5645:-5.5967283 5646:15.471817 5647:-17.350517 5648:155.58282 5649:-16.042527 5650:-23.224182 5651:-37.626464 5652:149.78782 5653:-13.199732 5654:-39.609726 5655:-16.994665 5656:156.81474 5657:-9.1555409 5658:-40.905014 5659:-0.0051383972 5660:162.65997 5661:3.6486793 5662:-39.530792 5663:-1.5886497 5664:163.60276 5665:15.313628 5666:12.213638 5667:-15.598112 5668:157.0526 5669:3.3051339 5670:-22.926086 5671:-34.429387 5672:152.26504 5673:2.1705301 5674:-38.502396 5675:-13.873943 5676:159.4259 5677:4.3052726 5678:-39.871353 5679:3.351944 5680:165.25062 5681:13.10241 5682:-31.212814 5683:-5.6944351 5684:162.07835 5685:33.743632 5686:4.7056122 5687:-14.141731 5688:157.46023 5689:20.543746 5690:-20.172852 5691:-31.247342 5692:153.55086 5693:14.234626 5694:-30.330643 5695:-17.491264 5696:158.26376 5697:12.753967 5698:-31.710327 5699:-1.5563507 5700:163.41357 5701:-28.089775 5702:-39.521591 5703:-31.266959 5704:151.16848 5705:-12.246394 5706:-30.565308 5707:46.845753 5708:170.11242 5709:-40.722589 5710:-30.856277 5711:10.063274 5712:158.04701 5713:-38.609663 5714:-35.873734 5715:-21.240416 5716:151.8305 5717:-22.491308 5718:-40.839127 5719:-35.068225 5720:150.99673 5721:-20.636545 5722:-35.591202 5723:-7.291523 5724:159.23034 5725:-26.02128 5726:13.71199 5727:-15.035851 5728:155.42184 5729:-30.909981 5730:-20.65303 5731:-34.98752 5732:149.87555 5733:-24.577646 5734:-34.946732 5735:-18.772211 5736:155.3641 5737:-19.393497 5738:-36.011505 5739:-3.7555046 5740:160.41101 5741:-10.992149 5742:-40.49205 5743:-3.1508026 5744:162.50015 5745:-5.6232331 5746:14.914536 5747:-17.823488 5748:157.07195 5749:-16.923265 5750:-24.354523 5751:-36.474453 5752:151.4451 5753:-14.008988 5754:-40.013275 5755:-15.295464 5756:158.43797 5757:-9.7323577 5758:-40.758057 5759:1.6701775 5760:164.07383 5761:3.0967815 5762:-39.591553 5763:-0.0027236938 5764:165.64914 5765:15.260624 5766:11.405533 5767:-16.248333 5768:158.88096 5769:2.4633861 5770:-24.269196 5771:-33.486815 5772:154.32524 5773:1.4428787 5774:-39.005081 5775:-12.314964 5776:161.55629 5777:3.8295395 5778:-39.744064 5779:4.9164085 5780:167.23673 5781:12.569614 5782:-31.598907 5783:-4.6674156 5784:164.35858 5785:33.598124 5786:3.6768341 5787:-14.778732 5788:159.5633 5789:19.769621 5790:-21.623718 5791:-30.729646 5792:155.82649 5793:13.53461 5794:-31.162094 5795:-16.50433 5796:160.59676 5797:12.284721 5798:-31.927032 5799:-0.50839233 5800:165.66678 5801:-28.179004 5802:-39.801208 5803:-30.70004 5804:151.7588 5805:-12.24035 5806:-29.787567 5807:47.345657 5808:169.71761 5809:-40.719804 5810:-30.42453 5811:10.570065 5812:158.16037 5813:-38.677255 5814:-35.897659 5815:-20.66186 5816:152.26165 5817:-22.685563 5818:-41.163788 5819:-34.525422 5820:151.63972 5821:-20.839038 5822:-35.591873 5823:-6.6405907 5824:159.71942 5825:-26.000989 5826:13.629089 5827:-15.145929 5828:155.88875 5829:-31.139357 5830:-21.033218 5831:-34.512016 5832:150.43658 5833:-24.813939 5834:-35.098801 5835:-18.095764 5836:155.9159 5837:-19.574189 5838:-35.960709 5839:-3.0853424 5840:160.88343 5841:-11.171773 5842:-40.485397 5843:-2.328537 5844:163.11964 5845:-5.6071447 5846:14.675613 5847:-18.025736 5848:157.68854 5849:-17.169728 5850:-24.88179 5851:-35.88987 5852:152.17039 5853:-14.233533 5854:-40.183411 5855:-14.454435 5856:159.13999 5857:-9.8888606 5858:-40.685715 5859:2.5028305 5860:164.65459 5861:2.8914644 5862:-39.598694 5863:0.63106918 5864:166.44442 5865:15.262727 5866:11.074188 5867:-16.474001 5868:159.64059 5869:2.2038494 5870:-24.795837 5871:-33.100139 5872:155.17275 5873:1.1907462 5874:-39.192368 5875:-11.695736 5876:162.40571 5877:3.6426622 5878:-39.677994 5879:5.5354767 5880:167.99363 5881:12.380774 5882:-31.737747 5883:-4.2106972 5884:165.28909 5885:33.562583 5886:3.2662354 5887:-14.954895 5888:160.43651 5889:19.528962 5890:-22.201096 5891:-30.454868 5892:156.77434 5893:13.301482 5894:-31.483795 5895:-16.058146 5896:161.55916 5897:12.112899 5898:-31.997131 5899:-0.047489166 5900:166.58031 5901:-28.254991 5902:-40.015579 5903:-30.016836 5904:152.23164 5905:-11.990953 5906:-28.790482 5907:48.021477 5908:168.80608 5909:-40.495113 5910:-29.71759 5911:11.271206 5912:157.96747 5913:-38.608734 5914:-35.727615 5915:-19.871716 5916:152.53263 5917:-22.958103 5918:-41.414383 5919:-33.956572 5920:152.16856 5921:-21.222725 5922:-35.525772 5923:-5.6880684 5924:159.99133 5925:-26.037372 5926:13.607544 5927:-15.102722 5928:156.26145 5929:-31.709482 5930:-21.398178 5931:-33.686293 5932:150.89699 5933:-25.314993 5934:-35.20192 5935:-17.075686 5936:156.29974 5937:-19.902273 5938:-35.843079 5939:-2.1156731 5940:161.124 5941:-11.482651 5942:-40.387756 5943:-1.1398773 5944:163.56821 5945:-5.6683805 5946:14.397644 5947:-18.229588 5948:158.30836 5949:-17.776809 5950:-25.483582 5951:-34.977184 5952:152.88242 5953:-14.687887 5954:-40.298523 5955:-13.22368 5956:159.73851 5957:-10.13632 5958:-40.479568 5959:3.6857185 5960:165.02626 5961:2.5499976 5962:-39.594727 5963:1.453804 5964:167.18363 5965:15.18164 5966:10.617355 5967:-16.845493 5968:160.51604 5969:1.5839701 5970:-25.453568 5971:-32.581202 5972:156.11008 5973:0.7034912 5974:-39.408752 5975:-10.88068 5976:163.26414 5977:3.3611481 5978:-39.585846 5979:6.325943 5980:168.6543 5981:12.028541 5982:-31.935303 5983:-3.7154427 5984:166.32225 5985:33.420487 5986:2.6564789 5987:-15.3876 5988:161.54072 5989:18.952601 5990:-22.961807 5991:-30.225416 5992:157.91746 5993:12.812058 5994:-31.906342 5995:-15.579443 5996:162.66729 5997:11.811484 5998:-32.107452 5999:0.45101929 6000:167.57417 6001:-28.259844 6002:-40.034576 6003:-29.806943 6004:152.31439 6005:-11.839463 6006:-28.453964 6007:48.259052 6008:168.35348 6009:-40.355322 6010:-29.422958 6011:11.518936 6012:157.7895 6013:-38.537211 6014:-35.599213 6015:-19.595509 6016:152.54086 6017:-23.050724 6018:-41.441193 6019:-33.797782 6020:152.27285 6021:-21.353756 6022:-35.478043 6023:-5.2450523 6024:159.99922 6025:-26.064291 6026:13.633179 6027:-15.03302 6028:156.32198 6029:-31.952196 6030:-21.532867 6031:-33.243043 6032:151.00753 6033:-25.493105 6034:-35.212631 6035:-16.555044 6036:156.37418 6037:-19.985491 6038:-35.770157 6039:-1.6263504 6040:161.13034 6041:-11.637931 6042:-40.338135 6043:-0.75052261 6044:163.59061 6045:-5.710428 6046:14.314926 6047:-18.281536 6048:158.47596 6049:-18.079672 6050:-25.63707 6051:-34.665946 6052:153.05052 6053:-14.918576 6054:-40.309967 6055:-12.826708 6056:159.82598 6057:-10.26709 6058:-40.399445 6059:4.0562096 6060:165.00905 6061:2.393286 6062:-39.594193 6063:1.6984215 6064:167.33286 6065:15.13048 6066:10.450851 6067:-16.994978 6068:160.80045 6069:1.2840276 6070:-25.65625 6071:-32.427848 6072:156.38851 6073:0.47322637 6074:-39.474762 6075:-10.637333 6076:163.47668 6077:3.2323592 6078:-39.559998 6079:6.5540123 6080:168.76309 6081:11.876344 6082:-32.014908 6083:-3.5712395 6084:166.63648 6085:33.342394 6086:2.4182739 6087:-15.594891 6088:161.93765 6089:18.670316 6090:-23.227692 6091:-30.18227 6092:158.30812 6093:12.588294 6094:-32.057831 6095:-15.442759 6096:163.02377 6097:11.690393 6098:-32.160522 6099:0.59471512 6100:167.86687 6101:-28.063391 6102:-40.060562 6103:-29.50973 6104:152.41626 6105:-11.489256 6106:-27.886383 6107:48.673225 6108:167.5057 6109:-39.950749 6110:-28.917542 6111:11.892673 6112:157.43298 6113:-38.144471 6114:-35.379471 6115:-19.164391 6116:152.53458 6117:-22.979204 6118:-41.483215 6119:-33.601283 6120:152.41323 6121:-21.578087 6122:-35.382126 6123:-4.4869957 6124:159.90566 6125:-26.135527 6126:13.678116 6127:-14.867613 6128:156.36715 6129:-32.432835 6130:-21.724319 6131:-32.472581 6132:151.11091 6133:-25.827385 6134:-35.207977 6135:-15.682587 6136:156.39252 6137:-20.127085 6138:-35.627533 6139:-0.82186127 6140:161.02257 6141:-11.877706 6142:-40.238342 6143:-0.016845703 6144:163.53112 6145:-5.8161438 6146:14.175766 6147:-18.356501 6148:158.71393 6149:-18.639494 6150:-25.908401 6151:-34.054577 6152:153.28395 6153:-15.307888 6154:-40.317017 6155:-12.065237 6156:159.89573 6157:-10.456622 6158:-40.242142 6159:4.7614365 6160:164.87635 6161:2.1328055 6162:-39.59198 6163:2.0970993 6164:167.47008 6165:15.009285 6166:10.169113 6167:-17.27112 6168:161.25335 6169:0.71974096 6170:-25.989365 6171:-32.170586 6172:156.80925 6173:0.066321909 6174:-39.582596 6175:-10.233578 6176:163.74711 6177:3.027007 6178:-39.518555 6179:6.9242973 6180:168.81967 6181:11.628612 6182:-32.155762 6183:-3.3295441 6184:167.10723 6185:33.176639 6186:2.0150299 6187:-16.000444 6188:162.60466 6189:18.130491 6190:-23.6745 6191:-30.122681 6192:158.94943 6193:12.193813 6194:-32.317139 6195:-15.213747 6196:163.58559 6197:11.513031 6198:-32.262604 6199:0.83464432 6200:168.29331 6201:-27.818675 6202:-40.148376 6203:-29.328225 6204:152.51774 6205:-11.258643 6206:-27.630341 6207:48.872734 6208:167.13119 6209:-39.689132 6210:-28.768799 6211:12.071369 6212:157.29247 6213:-37.829196 6214:-35.396118 6215:-18.947651 6216:152.57457 6217:-22.736182 6218:-41.609085 6219:-33.413635 6220:152.55797 6221:-21.660132 6222:-35.351212 6223:-4.1207962 6224:159.86297 6225:-26.191781 6226:13.678314 6227:-14.768099 6228:156.39446 6229:-32.665553 6230:-21.829895 6231:-32.093806 6232:151.16374 6233:-25.971845 6234:-35.221359 6235:-15.265028 6236:156.40144 6237:-20.172456 6238:-35.574829 6239:-0.44096756 6240:160.96998 6241:-11.95908 6242:-40.204071 6243:0.32101822 6244:163.49529 6245:-5.8933038 6246:14.106018 6247:-18.385595 6248:158.8268 6249:-18.90791 6250:-26.041245 6251:-33.761732 6252:153.39359 6253:-15.46942 6254:-40.333481 6255:-11.712978 6256:159.92204 6257:-10.512535 6258:-40.185944 6259:5.0824013 6260:164.80502 6261:2.0497361 6262:-39.58667 6263:2.2877197 6264:167.52042 6265:14.927921 6266:10.049316 6267:-17.41119 6268:161.46231 6269:0.45091492 6270:-26.143372 6271:-32.044234 6272:157.00608 6273:-0.096342444 6274:-39.630493 6275:-10.038933 6276:163.86609 6277:2.9740329 6278:-39.494308 6279:7.0992279 6280:168.82927 6281:11.536857 6282:-32.211594 6283:-3.2275314 6284:167.31173 6285:33.08143 6286:1.8531342 6287:-16.215698 6288:162.91079 6289:17.872588 6290:-23.86586 6291:-30.10818 6292:159.24451 6293:12.023487 6294:-32.427078 6295:-15.117872 6296:163.83812 6297:11.456665 6298:-32.301788 6299:0.93455505 6300:168.47429 6301:-27.465012 6302:-40.300766 6303:-29.05186 6304:152.65702 6305:-11.031775 6306:-27.120728 6307:49.208755 6308:166.36141 6309:-39.351106 6310:-28.461334 6311:12.328583 6312:156.96014 6313:-37.407197 6314:-35.417343 6315:-18.613226 6316:152.57886 6317:-22.440242 6318:-41.864746 6319:-33.107568 6320:152.77199 6321:-21.905082 6322:-35.243896 6323:-3.575676 6324:159.68776 6325:-26.221843 6326:13.730103 6327:-14.666359 6328:156.41323 6329:-33.071305 6330:-21.910416 6331:-31.570855 6332:151.20171 6333:-26.310031 6334:-35.181015 6335:-14.673481 6336:156.32247 6337:-20.378711 6338:-35.439209 6339:0.10025787 6340:160.76086 6341:-12.206397 6342:-40.110443 6343:0.87673569 6344:163.32872 6345:-5.9524702 6346:13.984619 6347:-18.459133 6348:159.01561 6349:-19.360156 6350:-26.231491 6351:-33.308615 6352:153.55511 6353:-15.829934 6354:-40.325485 6355:-11.147026 6356:159.88664 6357:-10.732404 6358:-40.054764 6359:5.6046638 6360:164.56348 6361:1.8045712 6362:-39.578781 6363:2.6406784 6364:167.51807 6365:14.847861 6366:9.7917328 6367:-17.625105 6368:161.84633 6369:-0.0028260946 6370:-26.428177 6371:-31.809479 6372:157.35291 6373:-0.45096815 6374:-39.717575 6375:-9.6819839 6376:164.02085 6377:2.7687646 6378:-39.453415 6379:7.4272499 6380:168.73904 6381:11.320325 6382:-32.338089 6383:-2.9826698 6384:167.64494 6385:32.954002 6386:1.4801331 6387:-16.510817 6388:163.50045 6389:17.433031 6390:-24.263 6391:-30.007765 6392:159.80315 6393:11.693802 6394:-32.656754 6395:-14.880917 6396:164.28788 6397:11.298233 6398:-32.395477 6399:1.1750031 6400:168.75318 6401:-27.461415 6402:-40.407654 6403:-28.836761 6404:152.83719 6405:-11.103308 6406:-26.693222 6407:49.425949 6408:165.8871 6409:-39.34573 6410:-28.193832 6411:12.493004 6412:156.80901 6413:-37.387654 6414:-35.399124 6415:-18.39081 6416:152.65189 6417:-22.501471 6418:-42.030502 6419:-32.88534 6420:152.99327 6421:-22.069159 6422:-35.166977 6423:-3.2611542 6424:159.68645 6425:-26.172206 6426:13.748688 6427:-14.737423 6428:156.53559 6429:-33.212445 6430:-21.995819 6431:-31.341274 6432:151.35292 6433:-26.488112 6434:-35.165131 6435:-14.350176 6436:156.39372 6437:-20.535468 6438:-35.340698 6439:0.41619873 6440:160.73186 6441:-12.39754 6442:-40.040573 6443:1.2196999 6444:163.32145 6445:-5.9066535 6446:13.8741 6447:-18.556986 6448:159.25509 6449:-19.529214 6450:-26.390991 6451:-33.074466 6452:153.7906 6453:-16.041382 6454:-40.329269 6455:-10.807934 6456:159.98243 6457:-10.92269 6458:-39.955353 6459:5.935318 6460:164.50135 6461:1.6215117 6462:-39.566055 6463:2.9642715 6464:167.62977 6465:14.873725 6466:9.5845947 6467:-17.716913 6468:162.21612 6469:-0.17395568 6470:-26.67305 6471:-31.593903 6472:157.72648 6473:-0.65370595 6474:-39.78891 6475:-9.3637543 6476:164.2586 6477:2.5917789 6478:-39.411545 6479:7.7384911 6480:168.78184 6481:11.195607 6482:-32.436249 6483:-2.6850357 6484:167.99782 6485:32.939931 6486:1.1920166 6487:-16.562128 6488:164.00224 6489:17.251213 6490:-24.590454 6491:-29.787291 6492:160.31785 6493:11.53972 6494:-32.844101 6495:-14.573097 6496:164.73496 6497:11.205505 6498:-32.469604 6499:1.4819756 6500:169.06901 6501:-27.483676 6502:-40.543823 6503:-28.608038 6504:153.07831 6505:-11.359766 6506:-26.030472 6507:49.720287 6508:165.16285 6509:-39.404689 6510:-27.754852 6511:12.646877 6512:156.56869 6513:-37.390376 6514:-35.330002 6515:-18.144682 6516:152.74168 6517:-22.663585 6518:-42.247131 6519:-32.668442 6520:153.27473 6521:-22.294845 6522:-35.035095 6523:-2.8041039 6524:159.676 6525:-26.048751 6526:13.784637 6527:-14.921415 6528:156.71691 6529:-33.334327 6530:-22.132828 6531:-31.039071 6532:151.5889 6533:-26.701547 6534:-35.127029 6535:-13.878014 6536:156.50387 6537:-20.749379 6538:-35.168777 6539:0.88953781 6540:160.68148 6541:-12.711568 6542:-39.924164 6543:1.6961594 6544:163.27065 6545:-5.77941 6546:13.704895 6547:-18.722046 6548:159.61454 6549:-19.706256 6550:-26.619858 6551:-32.777867 6552:154.1389 6553:-16.352199 6554:-40.323669 6555:-10.345863 6556:160.09821 6557:-11.248227 6558:-39.796417 6559:6.3977547 6560:164.36465 6561:1.3144181 6562:-39.541855 